tree
version=v4
num_class=1
num_tree_per_iteration=1
label_index=0
max_feature_idx=9
objective=binary sigmoid:1
feature_names=user_avg_rating user_rating_std log_user_rating_count item_avg_rating item_rating_std log_item_rating_count popularity_tier rating_age_days summary_length helpfulness_ratio
feature_infos=[1:5] [0:2.8284271247461903] [0:5.7930136083841441] [1:5] [0:2.1908902300206647] [1.6094379124341003:6.4345465187874531] -1:3:2:1:0 [272:4767] [1:128] [0:1.5]
tree_sizes=3335 3452 3438 3436 3460 3456 3452 3471 3470 3472 3471 3471 3466 3489 3476 3481 3490 3479 3471 3486 3483 3494 3488 3481 3470 3493 3479 3489 3476 3496 3492 3481 3495 3469 3469 3489 3472 3470 3491 3471 3459 3447 3472 3460 3468 3476 3449 3478 3479 3481 3458 3470 3464 3468 3458 3468 3486 3452 3434 3432 3493 3482 3456 3436 3447 3491 3489 3432 3454 3447 3446 3417 3447 3462 3433 3453 3463 3426 3417 3454 3433 3424 3394 3436 3428 3440 3379 3421 3420 3440 3446 3380 3446 3384 3395 3405 3413 3410 3406 3374 3431 3420 3398 3447 3401 3395 3391 3415 3427 3417 3458 3377 3443 3415

Tree=0
num_leaves=31
num_cat=0
split_feature=0 1 0 3 3 1 1 4 9 9 3 4 3 0 2 0 9 2 9 0 3 9 3 9 2 9 9 9 9 2
split_gain=528189 61236.8 15099.4 7300.43 2797.58 2491.54 1831.14 1811.91 1732.82 2065.29 1583.1 1362.06 990.948 946.989 943.829 936.658 916.256 631.29 626.692 616.745 613.187 605.729 508.017 493.403 456.945 444.739 861.314 389.991 370.604 370.206
threshold=3.9800156739811916 0.7181806419503115 3.2052631578947373 4.2021418651853439 4.4207535885167477 1.0512021755109897 0.57814224635573297 0.77966554511253494 0.91341829085457282 1.0000000180025095e-35 3.7029138513513518 0.58658007868906992 3.7231800766283532 4.3585714285714294 1.4978661367769956 3.5278637770897836 0.96571316614420077 1.2424533248940004 0.92907444668008055 4.3469899665551841 3.8894706224549158 1.0000000180025095e-35 4.4622507122507136 0.47722567287784684 0.89587973461402759 0.80810147299509005 1.0000000180025095e-35 0.85599078341013835 1.0000000180025095e-35 1.2424533248940004
decision_type=2 10 2 2 2 10 10 2 2 2 2 2 2 2 2 2 2 2 2 2 2 2 2 2 2 2 2 2 2 2
left_child=2 6 5 10 12 -1 -2 -7 9 19 -3 -6 -4 24 -8 -14 21 -10 28 -5 -16 -13 -20 -11 -12 26 -17 -26 -9 -25
right_child=1 3 4 8 11 7 14 18 17 23 13 16 15 -15 20 25 -18 -19 22 -21 -22 -23 -24 29 27 -27 -28 -29 -30 -31
leaf_value=0.85487615698677477 1.4567635289838134 1.0022735496520936 0.93690552564267571 1.2175914254840026 1.4071710100383243 1.2511019905461496 1.4588568188115068 0.93650497046109016 1.1722964188389766 0.9393943796881834 0.93522414421544231 1.1188500970064168 0.96499221698220716 1.199382867564099 1.1808884223795637 1.0807808871395186 1.2353846967444266 1.3653250773217764 0.96610677649518573 1.3427020427871406 1.344167105140792 0.95952557123876714 1.1958042012046555 0.94699721921813618 1.0642758839650408 1.1290743134400558 0.93352873965121153 1.1720452498454403 0.87381356776993901 1.1543987648700682
leaf_weight=27792.635618805885 34223.053221702576 1920.1800398826599 2304.9592723846436 952.05908954143524 168.67193651199341 171.49957156181335 554.81828963756561 1708.1642731428146 194.4408323764801 203.58058798313141 200.51152586936951 596.42053854465485 1889.5851240158081 980.20083105564117 313.63081443309784 1224.1170426607132 393.50562369823456 1317.0754413604736 883.0830100774765 672.2277866601944 862.58589112758636 397.76709532737732 108.06994915008545 103.67248165607452 1172.9132112264633 656.28851878643036 588.0487152338028 470.47835099697113 2104.9803646802902 506.70274102687836
leaf_count=44687 206667 5171 5098 4073 957 776 3359 3773 767 454 441 2118 4570 4062 1257 4004 1735 7067 2143 3495 4494 946 445 237 3694 2380 1286 1855 3678 1932
internal_value=1.15615 1.3941 0.896941 1.15594 1.01813 0.866544 1.45169 0.931712 1.25637 1.20422 1.07233 1.13884 0.989933 1.11996 1.35134 1.01798 1.10623 1.34049 0.920311 1.26937 1.30063 1.05511 0.991152 1.07421 1.07774 1.05854 1.033 1.09513 0.901897 1.11917
internal_weight=85635.9 44648.1 40987.8 8694.04 8219.36 32768.4 35954.1 4975.8 3949.76 2438.24 4744.28 1556.37 6663 2824.1 1731.03 4358.04 1387.69 1511.52 4804.3 1624.29 1176.22 994.188 991.153 813.956 1843.9 2468.45 1812.17 1643.39 3813.14 610.375
internal_count=327621 249025 78596 33248 23094 55502 215777 10815 18025 10191 15223 5756 17338 10052 9110 12240 4799 7834 10039 7568 5751 3064 2588 2623 5990 7670 5290 5549 7451 2169
is_linear=0
shrinkage=1


Tree=1
num_leaves=31
num_cat=0
split_feature=0 1 0 3 1 3 1 4 0 3 2 4 0 3 2 9 9 9 9 9 3 9 9 4 4 9 9 0 1 1
split_gain=317095 49820.4 6483.11 4557.29 1666.83 1544.76 1202 1148.27 1135.95 907.045 818.509 789.321 778.972 694.251 599.902 543.979 487.793 531.823 471.819 750.543 450.79 378.48 673.237 356.178 320.665 318.095 518.178 292.289 260.37 249.475
threshold=3.9800156739811916 0.70732823651085763 3.3038461538461541 4.2505230125523026 0.57814224635573297 4.5864367816091969 0.77985146836238362 0.64585169851338364 4.3349834983498363 3.4924242424242427 1.4978661367769956 0.5478432810194066 4.2018518518518526 4.0049504950495054 1.2424533248940004 0.96571316614420077 0.95180023228803723 1.0000000180025095e-35 0.93569065343258895 0.053588516746411484 4.1939333110293306 0.89564428312159727 1.0000000180025095e-35 1.0551981516642208 0.52533931038020809 0.87551652892561993 0.053588516746411484 3.6693989071038255 2.1147527251692817 0.77985146836238362
decision_type=2 10 2 2 10 2 10 2 2 2 2 2 2 2 2 2 2 2 2 2 2 2 2 2 2 2 2 2 10 10
left_child=2 4 6 9 -2 13 -1 -8 11 -3 -6 -5 -11 27 -13 24 17 -16 19 -14 -12 22 -15 28 -7 26 -10 -4 -9 -29
right_child=1 3 5 8 10 15 7 23 25 12 20 14 18 21 16 -17 -18 -19 -20 -21 -22 -23 -24 -25 -26 -27 -28 29 -30 -31
leaf_value=-0.33467855666372121 0.12104283969969323 -0.27151944261468752 -0.29095878437134137 0.07955311231449011 0.12325019371680906 0.058951499170606859 0.014054060523216583 -0.26124157216024252 0.021719646035932752 -0.22192174800254932 -0.092901440899649135 -0.22121719746135718 -0.12097883216130274 -0.19210401011648598 -0.076868493638739238 0.040153411172078532 -0.01024534832100543 -0.22418717648480488 -0.069737060503512957 -0.26098580531321158 0.032380900765978396 -0.16001094381436795 -0.29460729799827023 -0.3051076907590371 -0.18239748568465822 0.061360388586735953 -0.13967599431146807 -0.14909344472631184 -0.10719368165462853 -0.25489031895177516
leaf_weight=34424.47444088757 31753.758186399937 1299.9724876582623 2800.8210718929768 214.3628830909729 514.11624078452587 63.624675333499908 121.39242146909237 1040.4078674912453 620.80677860975266 2069.1229666769505 559.05464099347591 470.1060266494751 1176.4089189320803 1641.6839503198862 671.93547183275223 221.23845213651657 494.12792305648327 385.7144553810358 707.69492886960506 567.64720645546913 590.64121402800083 997.87206874787807 1050.9436148107052 6464.4410862475634 408.49795342981815 653.95727878808975 292.72806730866432 264.99398054182529 122.65278992056847 1402.6466836631298
leaf_count=43568 206667 2714 5150 1160 3359 372 592 2143 3303 5421 2320 1324 4184 4635 2792 1170 2556 1049 2883 1410 3193 3207 1885 10420 1185 3714 976 791 409 3069
internal_value=-0.141711 0.0581928 -0.310338 -0.142279 0.115931 -0.232537 -0.326669 -0.291085 -0.0571553 -0.197905 0.0183635 -0.102908 -0.176737 -0.244714 -0.122253 -0.0892389 -0.0922719 -0.130594 -0.138603 -0.166548 -0.0285393 -0.212616 -0.232111 -0.295942 -0.149873 0.00811723 -0.0299971 -0.271224 -0.244996 -0.238079
internal_weight=94067.8 43042.2 51025.7 9624.59 33417.6 8852.32 42173.4 7748.89 3803.74 5820.85 1663.81 2236.25 4520.87 8158.96 2021.88 693.361 1551.78 1057.65 2451.75 1744.06 1149.7 3690.5 2692.63 7627.5 472.123 1567.49 913.535 4468.46 1163.06 1667.64
internal_count=327621 249025 78596 33486 215539 21464 57132 13564 16874 16612 8872 8881 13898 18737 7721 2727 6397 3841 8477 5594 5513 9727 6520 12972 1557 7993 4279 9010 2552 3860
is_linear=0
shrinkage=0.1


Tree=2
num_leaves=31
num_cat=0
split_feature=0 1 0 3 1 4 2 9 9 0 3 3 1 3 3 2 9 9 0 9 9 3 2 4 1 9 1 3 4 4
split_gain=221457 41588.2 4338.49 3060.83 1626.77 1134.23 979.251 883.558 875.894 715.793 667.192 638.729 628.52 627.202 573.329 523.313 391.862 441.233 367.47 351.914 461.074 300.851 280.907 275.353 270.209 256.396 331.457 309.526 241.05 235.353
threshold=3.9800156739811916 0.70732823651085763 3.0128205128205132 4.2505230125523026 0.52572618272116656 0.5478432810194066 1.7005986908310777 0.91341829085457282 1.0000000180025095e-35 3.5741758241758248 3.76988498119885 3.8024390243902442 1.4416474375723385 4.5463121783876508 3.8894706224549158 1.4978661367769956 0.91341829085457282 1.0000000180025095e-35 4.3469899665551841 0.89564428312159727 1.0000000180025095e-35 4.497422680412372 1.4978661367769956 0.5478432810194066 0.96621198860350077 0.91734972677595639 1.03116493884045 3.9289321789321794 0.81502656197026579 0.98739697420492967
decision_type=2 10 2 2 10 2 2 2 2 2 2 2 10 2 2 2 2 2 2 2 2 2 2 2 10 2 10 2 2 2
left_child=2 4 12 10 -2 -4 -6 8 18 25 24 -11 -1 -14 -8 -12 17 29 28 20 -17 -18 -9 -15 -3 -7 -27 -28 -5 -13
right_child=1 3 5 7 6 9 14 22 -10 11 15 16 13 23 -16 19 21 -19 -20 -21 -22 -23 -24 -25 -26 26 27 -29 -30 -31
leaf_value=-0.26730188098954266 0.11969779203235389 -0.15204769209336014 0.060809811175893652 0.010952123806312216 0.1152903328400251 -0.23325161280712386 -0.1087798154284807 -0.073982874692337275 -0.16262296551429381 -0.21940960123184783 -0.20931793017598596 -0.083265115519199656 -0.23690102404480595 0.12821952827859504 0.025352590283180328 -0.104113154242019 -0.11968171096663778 -0.22024544478248817 0.020663252671746467 -0.056915853273641896 -0.20845125464474062 0.02511547353075444 0.036480196572296023 -0.12914305247678057 -0.21877862612487267 -0.23638461105309549 -0.21260684612624195 -0.089817288074993826 -0.1064264892065135 -0.16236957579314715
leaf_weight=40721.968788459897 28479.560553282499 877.33715336024761 169.35313491523266 229.64797803759575 971.4502566754818 4965.7405272275209 443.19993007183075 290.04766072332859 925.16235129535198 1921.2071771770716 715.89950899779797 567.28548449277878 3652.2312350869179 49.94987028837204 1134.0944858491421 1396.4641403257847 679.94704180955887 975.13981257379055 610.72108072042465 788.99384666979313 607.8992440700531 181.87539325654507 1115.9273876547813 247.85171118378639 1967.8075447976589 720.3894185423851 366.17876516282558 467.25062392652035 734.62857876718044 1116.0743923783302
leaf_count=46679 200604 2212 985 1066 6797 8234 1748 1127 2440 3443 1589 1830 5539 291 6390 4534 2105 1704 3296 3063 1357 867 6293 686 3857 1257 648 1461 2652 2867
internal_value=-0.121102 0.0551348 -0.249206 -0.119392 0.112848 -0.196171 0.036308 -0.0497298 -0.0853953 -0.199809 -0.162214 -0.173033 -0.263608 -0.225522 -0.0123369 -0.133038 -0.147723 -0.166719 -0.0400314 -0.113488 -0.135758 -0.0891243 0.0136921 -0.085976 -0.198201 -0.222158 -0.186707 -0.143767 -0.0784721 -0.135712
internal_weight=98091.3 41288.8 56802.4 10260.5 31028.3 12130.4 2548.74 3906.14 2500.16 11961.1 6354.4 5441.53 44672 3950.03 1577.29 3509.26 3520.32 2658.5 1575 2793.36 2004.36 861.822 1405.98 297.802 2845.14 6519.56 1553.82 833.429 964.277 1683.36
internal_count=327621 249025 78596 33486 215539 25401 14935 16874 9454 24416 16612 12816 53195 6516 8138 10543 9373 6401 7014 8954 5891 2972 7420 977 6069 11600 3366 2109 3718 4697
is_linear=0
shrinkage=0.1


Tree=3
num_leaves=31
num_cat=0
split_feature=0 1 0 3 1 2 4 4 2 0 1 4 3 4 0 0 5 3 4 3 3 1 2 9 3 5 9 9 0 9
split_gain=166232 35270.4 3438.2 2229.45 1583.71 875.518 875.107 717.618 690.719 610.91 510.307 451.141 440.21 433.994 426.261 376.714 330.976 309.112 290.715 288.921 276.992 261.669 252.142 245.833 323.464 221.216 242.11 179.001 169.691 162.744
threshold=3.9800156739811916 0.70732823651085763 3.0128205128205132 4.3119240106535939 0.52572618272116656 1.7005986908310777 0.94442968754827505 0.5478432810194066 1.7005986908310777 4.3349834983498363 1.3888372964961027 0.52533931038020809 3.8894706224549158 0.82019953226472453 4.2738636363636369 3.5400641025641026 3.8815106545092593 3.76988498119885 1.319760288515117 3.7332261521972137 3.4779364049318628 0.84337818919243401 1.2424533248940004 0.90967365967365976 4.080322580645162 3.3497501700808394 0.69337606837606847 0.85599078341013835 3.5278637770897836 0.91734972677595639
decision_type=2 10 2 2 10 2 2 2 2 2 10 2 2 2 2 2 2 2 2 2 2 10 2 2 2 2 2 2 2 2
left_child=2 4 10 9 -2 -6 11 -5 -9 17 -1 -4 -7 -12 -10 29 -11 -3 -18 -17 -20 -21 -19 -15 -25 26 -16 -24 -13 -8
right_child=1 3 6 7 5 12 15 8 14 16 13 28 -14 23 25 19 18 22 20 21 -22 -23 27 24 -26 -27 -28 -29 -30 -31
leaf_value=-0.22798729626822498 0.11728961192257213 -0.1842796868896816 0.067163081559745291 0.09328659326926024 0.11259200514740877 -0.092283370912461082 -0.20358339290017613 -0.12951013360500682 -0.072832895694501215 -0.13112437456507856 -0.04120832805253738 -0.14942603905545138 0.023192533314074101 -0.21121281984464835 -0.1193549762023261 -0.18808068822415042 -0.099975284945262727 -0.19190650630481035 -0.16277563365303646 -0.081673186613061249 0.029470623070325355 -0.15300217450484227 -0.13482349316094375 -0.1952198673608021 -0.07117968426939543 0.043387048546570162 0.032998046776815539 -0.069853983389496097 -0.083994927736438338 -0.16397397542264436
leaf_weight=42229.298449218273 26271.163640365005 2060.4859562516212 147.63259854912758 376.84774585068226 898.98732316493988 468.6765062212944 4384.0063686817884 853.35765819251537 1001.9983455985785 1193.6159987151623 179.73838728666306 766.58520898222923 1116.6984240114689 3702.5131529867649 214.77733086049557 1949.967310026288 699.33288708329201 571.75341930985451 89.839106559753418 630.64696009457111 452.10854257643223 2787.8210039138794 1559.8296902626753 635.40998190641403 314.1849277317524 857.68146501481533 202.7912353426218 582.40578040480614 820.70171263813972 1358.8278556317091
leaf_count=45779 200604 3767 913 2188 6797 1748 6480 2613 3808 3310 687 1676 6390 4944 777 3183 2208 1073 175 1799 1863 6240 3949 968 817 4543 1124 2088 2488 2622
internal_value=-0.106966 0.0523654 -0.211948 -0.102476 0.110073 0.0337579 -0.166095 -0.0370847 -0.0527782 -0.134289 -0.224465 -0.100043 -0.010945 -0.19368 -0.0240243 -0.176409 -0.0935267 -0.155078 -0.0573728 -0.157364 -0.0023982 -0.139843 -0.132907 -0.199571 -0.15418 0.014326 -0.0453651 -0.11716 -0.115595 -0.194211
internal_weight=99379.7 39472.4 59907.3 10716.8 28755.5 2484.36 12846.2 3507.45 3130.61 7209.37 47061.1 1734.92 1585.37 4831.85 2277.25 11111.3 2434.9 4774.47 1241.28 5368.44 541.948 3418.47 2713.99 4652.11 949.595 1275.25 417.569 2142.24 1587.29 5742.83
internal_count=327621 249025 78596 33486 215539 14935 25401 15053 12865 18433 53195 5077 8138 7416 10252 20324 7556 10877 4246 11222 2038 8039 7110 6729 1785 6444 1901 6037 4164 9102
is_linear=0
shrinkage=0.1


Tree=4
num_leaves=31
num_cat=0
split_feature=0 1 0 3 0 1 4 2 1 4 3 4 2 9 9 3 9 9 9 9 1 0 3 3 0 9 9 3 9 9
split_gain=130201 30306.6 3055.48 2109.19 1018.57 855.53 661.941 546.048 468.048 447.323 373.045 364.11 352.467 339.514 375.77 305.963 296.871 391.08 290.959 409.579 243.38 264.396 257.934 243.375 233.158 224.532 268.782 223.859 284.582 248.602
threshold=3.9800156739811916 0.58828918564491195 3.0128205128205132 4.2021418651853439 4.3349834983498363 0.8747308366799359 0.94442968754827505 1.2424533248940004 1.2251313481960415 0.45190658707358139 4.7981569800339514 0.45190658707358139 0.89587973461402759 0.89564428312159727 1.0000000180025095e-35 3.4492424242424247 0.91341829085457282 1.0000000180025095e-35 0.85839598997493749 0.053588516746411484 0.5005405411716094 4.7150974025974035 3.7406742354031515 4.497422680412372 4.1980392156862756 0.96282476506357118 1.0000000180025095e-35 4.0049504950495054 0.92637759710930456 1.0000000180025095e-35
decision_type=2 10 2 2 2 10 2 2 10 2 2 2 2 2 2 2 2 2 2 2 10 2 2 2 2 2 2 2 2 2
left_child=2 20 8 5 9 7 11 -3 -1 -5 27 -4 -11 14 -8 -7 17 -14 19 -6 -2 24 -23 -15 -22 26 -17 -10 29 -29
right_child=1 3 6 4 18 15 13 -9 10 12 -12 -13 16 23 -16 25 -18 -19 -20 -21 21 22 -24 -25 -26 -27 -28 28 -30 -31
leaf_value=-0.20190898660560996 0.11552659942288662 0.11636558775209521 0.095822305939230579 0.10594027031010395 0.028117882294986241 -0.17637746822495706 -0.14657262699709939 -0.072095488750777606 -0.19137815078003168 -0.16797008327977603 0.087850437670704704 -0.098553260766293713 -0.049038339929622657 -0.13025114684639208 -0.18955233645778383 -0.11142834851389541 -0.010019950809410037 -0.15067369815344736 0.062323457286637379 -0.086719445506312651 -0.10268824167655846 -0.23561191481074287 0.025831560378215219 -0.0067616906111858379 0.10841534781566134 -0.079640136786000987 -0.17420587318749026 -0.12559694776736743 -0.082107975018603466 -0.19791468890865632
leaf_weight=42228.811207547784 23922.023307770491 167.27019250392914 102.23340301215649 139.55710639059544 964.84585705399513 1231.4138059914112 5418.254717156291 1900.6968934684992 3164.3869850188494 372.63891723752022 55.013139948248863 1680.8305955827236 1011.2972067445517 2668.9855999052525 3257.0050771087408 1950.0835898369551 723.58261524140835 605.14144103229046 963.30159457027912 458.00995753705502 55.851282685995102 45.283230841159821 226.4058542996645 169.74387989938259 827.22439242899418 1049.3732250928879 1048.822203040123 811.0658265799284 480.56339439749718 1148.4157334417105
leaf_count=44883 198483 1384 689 869 5454 1935 9828 6000 3976 799 304 4388 3692 5470 4391 4737 3425 1324 5986 1557 301 173 1509 635 6467 3069 1861 1480 1156 1396
internal_value=-0.0964702 0.0498114 -0.186514 -0.076809 -0.0283259 -0.111374 -0.144106 -0.0568516 -0.19829 -0.0686585 -0.171285 -0.0874086 -0.077641 -0.152886 -0.162709 -0.13273 -0.0632565 -0.0870873 0.0198844 -0.00884766 0.113362 0.0685228 -0.017744 -0.122867 0.0950638 -0.119453 -0.133384 -0.173828 -0.151068 -0.167981
internal_weight=98848.1 37662.8 61185.3 12586 5238.37 7347.66 13297.1 2067.97 47888.3 2852.22 5659.45 1783.06 2712.66 11514 8675.26 5279.69 2340.02 1616.44 2386.16 1422.86 25076.8 1154.76 271.689 2838.73 883.076 4048.28 2998.91 5604.43 2440.04 1959.48
internal_count=327621 249025 78596 42092 23106 18986 25401 7384 53195 10109 8312 5077 9240 20324 14219 11602 8441 5016 12997 7011 206933 8450 1682 6105 6768 9667 6598 8008 4032 2876
is_linear=0
shrinkage=0.1


Tree=5
num_leaves=31
num_cat=0
split_feature=0 1 0 0 3 3 3 1 2 3 4 4 2 0 1 9 9 3 5 2 3 1 2 9 9 5 4 2 4 2
split_gain=104851 26437.9 2902.41 1660.01 831.502 719.83 594.247 547.292 535.925 413.064 408.29 380.951 339.454 315.661 357.04 335.797 343.207 254.837 349.795 304.582 247.138 246.795 249.305 218.611 321.702 217.037 279.479 215.393 204.438 182.958
threshold=3.9800156739811916 0.58828918564491195 3.1690476190476193 4.3349834983498363 4.2505230125523026 4.6419413919413932 4.1335115864527641 0.97251476352540356 1.2424533248940004 3.9344470962609388 0.5478432810194066 0.5478432810194066 1.2424533248940004 3.8198051948051952 1.2043965990823731 0.86620370370370381 1.0000000180025095e-35 4.7005747126436797 3.7256208424938388 1.2424533248940004 3.6374589266155533 0.5005405411716094 2.4414009612931857 0.80151515151515162 1.0000000180025095e-35 3.9607678160667752 1.3762584275271561 2.4414009612931857 1.0551981516642208 3.7494348669884658
decision_type=2 10 2 2 2 2 2 10 2 2 2 2 2 2 10 2 2 2 2 2 2 10 2 2 2 2 2 2 2 2
left_child=2 21 7 5 8 9 -4 -1 -5 -3 -8 -9 -11 14 -12 16 -16 18 19 -6 -10 -2 -23 24 -14 29 -27 -21 -13 -22
right_child=1 3 6 4 17 -7 10 11 20 12 13 28 23 -15 15 -17 -18 -19 -20 27 25 22 -24 -25 -26 26 -28 -29 -30 -31
leaf_value=-0.18344034522418889 0.11368236900149065 -0.13388166925577691 -0.14303003184767479 0.11470281543388519 0.11589637920544776 0.0084688632458383411 0.070079793468184909 0.067434477495303041 -0.10945342431810119 -0.13964373137687017 -0.14021834835021971 -0.11618947156772411 -0.059808767950776477 -0.045398430790560322 -0.060792131271172938 -0.0076793820507026211 -0.16088017896936838 0.091838403280268793 0.04634609890759965 -0.13633484988510658 -0.10391834323309608 0.10817597708117646 0.012471299108550497 -0.02813352060326936 -0.14307270336839661 -0.05586270489510841 0.053932138898470587 -0.020400489741800597 -0.16324417141300729 0.0076214019827792927
leaf_weight=41117.281477034092 21978.632716633379 3094.0680816918612 7288.3496704101562 169.96519858390093 102.21130833029747 589.62313659489155 139.637347266078 76.696649253368378 960.23160891234875 880.62317653000355 2337.4539868235588 1076.2450381815434 1436.432893589139 791.75474008917809 757.45168133080006 463.0855915248394 625.54338632524014 434.00924087315798 953.64811433106661 278.79814495146275 747.69690230488777 605.33405262976885 494.5640659853816 910.69168022274971 685.45120951533318 618.51342456042767 370.84083600342274 376.88967354595661 6498.3295142948627 183.06509703397751
leaf_count=43887 198483 5874 11871 1522 865 2664 929 410 2110 1738 4418 2040 4519 2197 1869 1531 902 2832 5508 1036 2124 5196 3254 3738 1340 2075 1576 1880 8542 691
internal_value=-0.0882877 0.0474518 -0.167886 -0.067857 -0.0242995 -0.0976479 -0.124693 -0.178871 -0.0578501 -0.106577 -0.0985651 -0.154313 -0.084988 -0.103298 -0.114256 -0.0813837 -0.106063 0.023399 0.00604433 -0.0446665 -0.0680322 0.111369 0.0651428 -0.0691167 -0.0867063 -0.0473179 -0.0147082 -0.0696957 -0.156558 -0.0819804
internal_weight=97043.1 35871.3 61171.8 12792.8 5195.87 7596.89 12403.3 48768.6 3050.31 7007.27 5114.93 7651.27 3913.2 4975.29 4183.53 1846.08 1383 2145.56 1711.55 757.899 2880.35 23078.5 1099.9 3032.58 2121.88 1920.12 989.354 655.688 7574.57 930.762
internal_count=327621 249025 78596 42092 22219 19873 23717 54879 10098 17209 11846 10992 11335 10917 8720 4302 2771 12121 9289 3781 8576 206933 8450 9597 5859 6466 3651 2916 10582 2815
is_linear=0
shrinkage=0.1


Tree=6
num_leaves=31
num_cat=0
split_feature=0 1 0 3 1 9 1 3 9 2 3 4 2 9 3 9 9 1 0 1 7 2 0 0 9 9 3 3 5 3
split_gain=86176.5 23596 2583.68 1389.04 779.021 524.786 472.84 472.594 460.892 383.348 356.127 352.752 293.385 287.782 284.521 278.708 403.488 263.282 252.293 247.665 249.828 228.211 200.836 178.969 170.104 258.591 161.841 160.713 154.973 193.043
threshold=3.9298029556650249 0.58828918564491195 3.0128205128205132 4.3495092002318181 0.80903983495589082 0.94893524554541508 1.6342202593547663 4.080322580645162 1.0000000180025095e-35 1.4978661367769956 4.4207535885167477 0.5478432810194066 1.4978661367769956 0.43167701863354041 3.9499216300940447 0.90661337209302328 1.0000000180025095e-35 0.5005405411716094 4.0840395480225995 1.1551104427753607 963.50000000000011 2.4414009612931857 3.5400641025641026 3.804761904761905 0.94893524554541508 0.042338709677419366 3.8024390243902442 3.9608687332567936 3.2384861814448418 3.9344470962609388
decision_type=2 10 2 2 10 2 10 2 2 2 2 2 2 2 2 2 2 10 2 10 2 2 2 2 2 2 2 2 2 2
left_child=2 17 6 4 9 8 -1 -4 18 -3 -8 -9 -6 -10 -14 16 22 -2 -5 23 -21 -19 -13 -17 25 -12 -23 -16 -11 -30
right_child=1 3 7 5 12 -7 10 11 13 28 24 15 14 -15 27 19 -18 21 -20 20 -22 26 -24 -25 -26 -27 -28 -29 29 -31
leaf_value=-0.16811017390317984 0.11198701328285871 0.11333195267003333 -0.13224420742349149 -0.072016332032480826 -0.13237519860495581 0.039176468918847379 -0.14220039603732834 0.06491098697686927 -0.18798044497967301 -0.084236594615884799 0.012360780160428589 -0.11336017094946088 -0.10417250056965584 -0.060922791851478232 0.1074844510617779 -0.11600272142761292 -0.14891407727224723 0.10594739613379865 0.019901740309199396 -0.057857957625732662 0.072735108431977766 -0.087974621608732817 -0.057024290382427616 0.01010206055352255 0.053289800637341782 -0.16175631471698665 0.044275090424176655 -0.063225050767025212 -0.055763233075098874 0.026489358728773761
leaf_weight=43274.406414523721 20186.74570299685 184.59115666896105 7339.5371299237013 401.86594553291798 1702.6781526058912 1374.3167683407664 2845.7149150967598 136.02305668592453 233.54479783773422 513.53384448587894 154.22070316970348 1301.5428013801575 3332.9005305916071 753.10113316774368 56.44830784201622 740.25190824270248 1703.0856818854809 558.66200507432222 1162.1548634767532 458.40681791305542 215.28274895250797 119.7772499397397 1231.6146426051855 132.71938806772232 122.35542897880077 190.85299849510193 406.82520440220833 2395.7268522530794 624.2014592140913 525.59498193860054
leaf_count=48027 198567 1782 11485 1254 3035 7931 3934 938 377 1553 483 2327 6841 2352 250 1520 2423 5196 6048 1290 836 546 3131 457 479 272 2832 7222 1798 2435
internal_value=-0.0816518 0.0441422 -0.154238 -0.0605527 -0.0815383 -0.010638 -0.165323 -0.11529 -0.0374784 -0.0233901 -0.128913 -0.094266 -0.0958888 -0.0909981 -0.08515 -0.0980101 -0.111275 0.109407 -0.00371607 -0.0616776 -0.0161259 0.0614262 -0.0859698 -0.0968308 -0.0480182 -0.0839397 0.0141945 -0.0592954 -0.0385631 -0.0181639
internal_weight=94378.7 34532.7 59846 13260.7 9335.68 3924.98 46587.6 13258.5 2550.67 1847.92 3313.14 5918.93 7487.75 986.646 5785.08 5782.9 4236.24 21272 1564.02 1546.66 673.69 1085.26 2533.16 872.971 467.429 345.074 526.602 2452.18 1663.33 1149.8
internal_count=327621 250019 77602 42878 24916 17962 53195 24407 10031 7568 5168 12922 17348 2729 14313 11984 7881 207141 7302 4103 2126 8574 5458 1977 1234 755 3378 7472 5786 4233
is_linear=0
shrinkage=0.1


Tree=7
num_leaves=31
num_cat=0
split_feature=0 1 0 0 3 2 1 4 3 5 4 2 1 9 4 0 0 4 3 3 9 9 9 9 4 1 0 7 9 3
split_gain=71814.9 20762.7 2584.24 1149.03 659.873 549.016 506.111 412.47 405.917 332.065 342.84 292.473 273.059 264.023 262.885 250.063 273.809 244.839 233.955 226.02 215.58 319.441 200.087 157.767 157.528 155.705 161.605 150.733 147.521 146.643
threshold=3.9298029556650249 0.58828918564491195 3.0128205128205132 4.4564393939393945 4.6419413919413932 1.2424533248940004 1.1599787597635811 1.1234587995505343 3.9344470962609388 3.7256208424938388 0.5478432810194066 1.2424533248940004 0.44782039932319945 0.71261160714285732 0.96156581643986372 4.7533783783783798 4.2474489795918382 0.45190658707358139 3.7332261521972137 3.7332261521972137 0.80151515151515162 1.0000000180025095e-35 0.87420886075949378 0.90967365967365976 0.40824829046386313 1.6035920880099346 3.6996240601503767 977.50000000000011 1.0000000180025095e-35 3.7841995841995844
decision_type=2 10 2 2 2 2 10 2 2 2 2 2 10 2 2 2 2 2 2 2 2 2 2 2 2 10 2 2 2 2
left_child=2 12 6 4 8 -5 -1 17 -3 10 -7 -10 -2 -12 -8 16 -14 -4 -11 -17 21 -13 28 -16 -6 26 -19 -24 -9 -29
right_child=1 3 7 5 24 9 14 22 11 18 13 20 15 -15 23 19 -18 25 -20 -21 -22 -23 27 -25 -26 -27 -28 29 -30 -31
leaf_value=-0.15830665584727516 0.11106838251114404 -0.10461785359983947 0.087093149066018519 0.1131363491241648 0.11645849686546901 0.097881623764876927 -0.058161784887113779 -0.11396819562486871 -0.11255331841069456 -0.059387637259362719 -0.10359663665319548 -0.041572309674860815 -0.04932309975787641 -0.022065889702706169 -0.14200532789758594 -0.22583756848511705 0.10229604971901121 -0.10500273745580298 0.029456519316977847 0.019874607750114966 -0.014943433935585716 -0.11376342355494058 -0.10837541450602864 -0.09928473467655706 -0.0031369924267435909 -0.037660752867692306 -0.063050645125909424 -0.099289345352540359 -0.14555007283202581 -0.0046719863855914897
leaf_weight=39182.184774756432 18100.186808720231 3850.0812834948301 85.487775363028049 341.03947881609201 135.99584677815437 142.15594750642776 509.83316829800606 3680.6977413743734 907.9938226044178 376.08182357251644 822.11748035252094 1878.602679848671 134.42462806403637 768.45244978368282 4252.2738562375307 45.735836029052734 1045.2997028157115 2713.2079884707928 1398.880556717515 206.30062544345856 1235.2598059028387 909.79189179837704 1602.9137529581785 1085.0354287624359 579.19504883140326 636.91808977723122 1387.9333301484585 323.96517698466778 2472.6081413626671 331.32729591429234
leaf_count=44518 194410 7311 669 3359 943 961 1303 6077 1738 936 2247 6078 736 2961 5529 157 10298 5054 6946 1540 5115 1787 2875 1845 2496 1661 3344 553 3259 915
internal_value=-0.0761133 0.0420545 -0.142793 -0.0540833 -0.0727627 -0.00799101 -0.154211 -0.103947 -0.0802852 -0.0197678 -0.0509087 -0.061289 0.107743 -0.0642067 -0.126767 0.0657031 0.0850197 -0.0806348 0.0106321 -0.0247136 -0.0497205 -0.0651267 -0.117316 -0.133321 0.0196045 -0.0836611 -0.0908051 -0.0918564 -0.126659 -0.0514492
internal_weight=91142 32877.6 58264.4 13345.6 9496.92 3848.73 45029.3 13235.1 8781.73 3507.69 1732.73 4931.65 19531.9 1590.57 5847.14 1431.76 1179.72 4823.55 1774.96 252.036 4023.65 2788.39 8411.51 5337.31 715.191 4738.06 4101.14 2258.21 6153.31 655.292
internal_count=327621 250019 77602 42878 25468 17410 53195 24407 22029 14051 6169 14718 207141 5208 8677 12731 11034 10728 7882 1697 12980 7865 13679 7374 3439 10059 8398 4343 9336 1468
is_linear=0
shrinkage=0.1


Tree=8
num_leaves=31
num_cat=0
split_feature=0 1 0 0 1 2 3 4 3 5 4 3 9 9 1 3 2 0 0 2 9 9 3 9 9 0 9 3 1 0
split_gain=60472.8 18342.9 2631.99 959.787 535.751 532.613 451.05 400.936 398.807 292.478 288.897 274.322 265.645 436.843 255.25 253.23 246.816 224.077 250.101 222.153 194.009 222.909 190.161 190.001 189.206 180.348 175.611 166.642 203.915 161.084
threshold=3.9298029556650249 0.57814224635573297 3.0128205128205132 4.3349834983498363 0.97251476352540356 1.2424533248940004 4.4585784313725503 0.75393703492505215 4.0049504950495054 3.9607678160667752 0.58658007868906992 3.76988498119885 0.90661337209302328 1.0000000180025095e-35 0.44782039932319945 4.4709629074559771 3.3842466058243152 4.7533783783783798 4.2474489795918382 0.89587973461402759 0.80151515151515162 1.0000000180025095e-35 3.4924242424242427 0.93288288288288301 0.90967365967365976 3.5400641025641026 1.0000000180025095e-35 3.7736513960422884 1.9181960305868613 3.6693989071038255
decision_type=2 10 2 2 10 2 2 2 2 2 2 2 2 2 10 2 2 2 2 2 2 2 2 2 2 2 2 2 10 2
left_child=2 14 4 7 -1 -5 9 -3 29 16 -6 -9 13 25 -2 -14 -7 18 -16 -13 21 -21 -11 -24 26 -10 -12 -26 -29 -4
right_child=1 3 8 5 10 6 -8 11 12 22 24 19 15 -15 17 -17 -18 -19 -20 20 -22 -23 23 -25 27 -27 -28 28 -30 -31
leaf_value=-0.15001260482776771 0.1097957768191979 0.016645961144944196 -0.121356042511722 0.11173509893705583 0.076397811099461185 -0.089124142057061234 0.03324128902886405 -0.10324588616382052 -0.089248380294053895 -0.093699022974405868 -0.10942404823896974 -0.11928579381041921 -0.068376109336394278 -0.12634695765901457 -0.044268040340600258 0.014290809156660755 -0.0093105263648976411 -0.020976788995253237 0.10242069202766946 -0.050688249812822155 -0.023978462743721639 -0.10716598370731015 -0.018626840696282662 0.059879342807188499 -0.12890431978232769 -0.039306506061121856 -0.14674537597033788 -0.091543839588285339 0.018681820585596146 -0.086836633210096881
leaf_weight=36524.076618239284 16557.830959297717 504.35617100447416 4723.8139090389013 312.25647046416998 74.775425806641579 1381.9416479319334 1108.7936027646065 2420.5070122629404 1457.566147595644 245.3404003828764 2261.553695499897 609.7391479164362 1227.3463385850191 1884.495389893651 132.84569848328829 530.81609985977411 538.40477107465267 251.03105908632278 929.35114776343107 2210.4732113927603 1399.9462330788374 1021.902794316411 1259.0604982823133 408.24118134379387 597.80534628033638 1434.8977862596512 2849.0733809918165 574.16027356684208 237.16049619019032 1893.8046359121799
leaf_count=43353 194410 2370 6955 3359 386 3623 6379 4191 2709 484 3465 1034 2754 2819 712 2076 1849 1681 10072 6133 5100 1866 4693 2063 825 3661 3504 1002 660 3433
internal_value=-0.07136 0.0400812 -0.133331 -0.0482675 -0.145276 -0.0149266 -0.0229299 -0.0697168 -0.0941733 -0.0391789 -0.119043 -0.0754013 -0.0766507 -0.0888822 0.10643 -0.0434177 -0.0667469 0.0639936 0.0840748 -0.0625441 -0.0550754 -0.0685435 -0.0114999 0.00059551 -0.121285 -0.0644731 -0.13023 -0.0888423 -0.0593233 -0.111477
internal_weight=87563.4 31292 56271.3 13421 43118.6 5254.04 4941.78 8166.92 13152.7 3832.99 6594.53 7662.57 6535.12 4776.96 17871.1 1758.16 1920.35 1313.23 1062.2 5242.06 4632.32 3232.38 1912.64 1667.3 6519.75 2892.46 5110.63 1409.13 811.321 6617.62
internal_count=327621 250019 77602 43144 53195 22450 19091 20694 24407 12712 9842 18324 14019 9189 206875 4830 5472 12465 10784 14133 13099 7999 7240 6756 9456 6370 6969 2487 1662 10388
is_linear=0
shrinkage=0.1


Tree=9
num_leaves=31
num_cat=0
split_feature=0 1 0 3 1 4 1 0 5 9 3 0 1 4 2 3 2 3 1 3 0 9 9 3 4 9 9 9 9 4
split_gain=51369.5 16253.8 2680.76 805.037 560.24 414.76 405.714 351.689 348.416 313.917 285.608 275.709 261.876 253.72 233.117 217.581 213.145 192.808 179.913 232.68 177.949 170.5 337.33 170.13 143.303 141.613 136.687 131.317 130.669 125.596
threshold=3.9298029556650249 0.57814224635573297 3.0128205128205132 4.2505230125523026 0.97251476352540356 0.45190658707358139 0.8747308366799359 3.5278637770897836 3.7012257604091228 0.74090608465608476 3.7332261521972137 4.3349834983498363 0.44782039932319945 0.82019953226472453 1.2424533248940004 3.412778904665315 2.249904835165133 3.7231800766283532 0.94953261233674857 4.1335115864527641 4.1980392156862756 0.80810147299509005 1.0000000180025095e-35 4.5503623188405804 1.4245440549462669 0.90967365967365976 0.86620370370370381 1.0000000180025095e-35 0.042338709677419366 0.98739697420492967
decision_type=2 10 2 2 10 2 10 2 2 2 2 2 10 2 2 2 2 2 10 2 2 2 2 2 2 2 2 2 2 2
left_child=2 12 4 6 -1 -5 14 18 9 -7 -9 -10 -2 -6 -3 -8 -14 -18 -4 -20 -17 22 29 -23 -16 28 27 -21 -15 -12
right_child=1 3 7 5 13 8 15 10 11 -11 21 -13 16 25 24 20 17 -19 19 26 -22 23 -24 -25 -26 -27 -28 -29 -30 -31
leaf_value=-0.1429795664153844 0.10865731936328263 0.10934855937396815 -0.12366290659124873 0.10911300515245448 -0.011825065861892258 -0.079841516264568507 -0.11478118353528372 -0.10157919273393055 -0.021026782492334757 -0.0042344060448594222 -0.010837461157078485 0.047117371206367956 0.10499369837186881 -0.104402304421675 -0.053044628387618586 -0.085852815366993462 -0.091636194383651517 0.047722994115189404 -0.10896606754812593 -0.048685232843249368 -0.047888669170673241 -0.040190258078958242 -0.11355999362102831 0.060845403052208528 -0.00055437903482553116 -0.085943412208096412 -0.014557360542515472 -0.11583606593726306 -0.13756727625734505 -0.061759632156227331
leaf_weight=34588.044725656509 15131.089242644608 118.90263817459345 2443.9016062319279 270.34556993097067 249.14621298015118 1257.0692224577069 1158.950787872076 1924.9893332272768 1398.1987179964781 975.13436644524336 716.55999137461185 1031.9430387690663 584.4149339646101 2145.5928484946489 1456.404877319932 2439.2492281347513 121.60375659912825 540.7461789175868 2440.7770865559578 656.88445569574833 2500.1527016013861 1057.5272799432278 1074.4236667305231 197.83762139081955 809.03657622635365 1334.3628902584314 467.36663137376308 523.14503887295723 2661.7871426045895 1494.6407116055489
leaf_count=43353 194410 1522 3578 2123 810 3903 1780 3064 4805 4691 2049 6434 7076 3298 4168 4774 641 4748 3729 1433 6380 2599 1663 973 2564 2324 1381 793 3410 3145
internal_value=-0.0672239 0.0381791 -0.125402 -0.0434312 -0.137954 -0.0113071 -0.0621114 -0.0858324 -0.0182896 -0.0468127 -0.0692995 0.00791017 0.105028 -0.110752 -0.0271358 -0.0757862 0.0609759 0.0221374 -0.102198 -0.0893664 -0.0666367 -0.0556157 -0.0675931 -0.0242677 -0.0342993 -0.114765 -0.0603275 -0.0784554 -0.122765 -0.0452578
internal_weight=83770.2 29793.2 53977 13415.4 40978.9 4932.69 8482.7 12998.1 4662.35 2232.2 6465.98 2430.14 16377.9 6390.89 2384.34 6098.35 1246.76 662.35 6532.07 4088.17 4939.4 4540.99 3285.62 1255.36 2265.44 6141.74 1647.4 1180.03 4807.38 2211.2
internal_count=327621 250019 77602 43144 53195 21956 21188 24407 19833 8594 13493 11239 206875 9842 8254 12934 12465 5389 10914 7336 11154 10429 6857 3572 6732 9032 3607 2226 6708 5194
is_linear=0
shrinkage=0.1


Tree=10
num_leaves=31
num_cat=0
split_feature=0 1 0 1 1 3 2 3 2 3 1 3 4 2 9 9 0 1 3 4 3 5 2 0 0 1 9 9 1 9
split_gain=43928.8 14435.7 2723.42 689.319 593.411 533.372 333.42 314.951 296.875 284.108 269.504 244.323 217.647 202.909 182.395 247.896 181.213 208.389 168.859 161.635 155.178 154.55 165.192 139.169 134.06 128.648 125.893 121.433 121.367 119.704
threshold=3.9298029556650249 0.57814224635573297 3.0128205128205132 0.80903983495589082 0.97251476352540356 4.6824686054196976 1.4978661367769956 4.0049504950495054 1.4978661367769956 3.9499216300940447 0.44782039932319945 4.5606082868057607 0.58658007868906992 2.249904835165133 0.91341829085457282 1.0000000180025095e-35 3.5400641025641026 0.94413721103309267 3.9168825561312612 0.5478432810194066 3.7332261521972137 5.0657496176235997 2.602003343538398 3.6693989071038255 2.4083333333333337 1.327821389213774 0.86620370370370381 1.0000000180025095e-35 0.50673111818947192 0.96019801980198027
decision_type=2 10 2 10 10 2 2 2 2 2 10 2 2 2 2 2 2 10 2 2 2 2 2 2 2 10 2 2 10 2
left_child=2 10 4 6 -1 8 -3 23 -5 -10 -2 24 -9 -12 15 25 17 -14 -8 -13 -15 22 -20 -4 -6 -11 27 -19 -18 -21
right_child=1 3 7 5 11 -7 18 12 9 14 13 19 16 20 -16 -17 28 26 21 29 -22 -23 -24 -25 -26 -27 -28 -29 -30 -31
leaf_value=-0.13718337562613922 0.10763422455456224 0.1101276866940397 -0.10385651447298011 -0.088111937196204818 -0.1275228391591566 0.036259779897461389 -0.039709236842277 0.057599111008412786 -0.068877110610834152 -0.034094599289471138 0.10351595410819414 0.12508011263904126 -0.11521827201454787 -0.07607140857405395 0.0019172618206755834 -0.081136026117931373 0.048763447658916249 -0.053146162620764374 -0.055936814047196561 -0.086444705107192821 0.045147949708533114 0.067830921759748725 0.023452723122557771 -0.071304342661332551 -0.096339806800739017 0.031871794374225652 -0.021108860171775389 -0.11174104663470126 -0.052569372467304913 0.048852414253738909
leaf_weight=32549.368724912405 13814.664409972727 274.18483194708824 4502.6371785402298 2278.4850766807795 2290.7378930747509 662.43404663354158 932.13123120367527 146.29325450211763 3357.6694153547287 1621.1863770484924 535.96616622060537 58.037855163216591 1209.2038495391607 132.68551560491323 1259.6096973121166 1107.1186507940292 123.09110273420811 838.67978899180889 404.01363395899534 278.09079372882843 517.44154849648476 398.47617241740227 746.14638873934746 1854.2017914950848 3462.6640108078718 361.57117068767548 535.20464390516281 611.60958679020405 2971.8875999301672 85.498197987675667
leaf_count=43353 194410 3359 6955 4470 3135 3658 2497 986 6841 5423 7076 350 1825 675 5684 2328 387 1689 1700 511 4714 2194 3686 3433 5558 1304 1414 905 6813 288
internal_value=-0.0635266 0.0363198 -0.118576 -0.0391002 -0.131792 -0.0506355 0.00548469 -0.0785736 -0.0564 -0.0470249 0.103707 -0.103371 -0.0629798 0.0579625 -0.0301557 -0.0432305 -0.0657844 -0.0824912 -0.00608089 -0.0298921 0.0204081 0.0141602 -0.00443423 -0.0943615 -0.108755 -0.0220651 -0.0625598 -0.0778565 -0.0485392 -0.0546295
internal_weight=79921 28403.8 51517.2 13403 38724.4 10648.1 2754.95 12792.8 9985.64 7707.16 15000.8 6175.03 6435.97 1186.09 4349.49 3089.88 6289.68 3194.7 2480.77 421.627 650.127 1548.64 1150.16 6356.84 5753.4 1982.76 1985.49 1450.29 3094.98 363.589
internal_count=327621 250019 77602 43144 53195 29708 13436 24407 26050 21580 206875 9842 14019 12465 14739 9055 13033 5833 10077 1149 5389 7580 5386 10388 8693 6727 4008 2594 7200 799
is_linear=0
shrinkage=0.1


Tree=11
num_leaves=31
num_cat=0
split_feature=0 1 1 0 3 3 4 5 9 9 1 0 0 1 2 7 9 0 4 3 4 2 1 3 4 5 9 7 2 0
split_gain=37758.3 13053 2677.12 694.31 592.126 430.882 355.229 323.808 318.103 436.716 294.592 267.252 261.204 257.904 241.551 211.212 189.323 161.112 158.467 156.439 153.252 151.449 142.805 131.285 130.526 192.773 116.438 134.689 112.002 111.651
threshold=3.8944444444444448 0.57814224635573297 0.35270958293388621 2.8603896103896109 4.1988372093023267 3.8024390243902442 0.5478432810194066 3.0201273556387074 0.90967365967365976 1.0000000180025095e-35 0.37837485837091372 4.4463601532567063 4.301162790697675 1.0373137411324806 2.4414009612931857 642.50000000000011 0.74090608465608476 4.1603571428571433 0.5478432810194066 3.4379280821917813 0.96156581643986372 1.2424533248940004 1.2864876472475595 3.7029138513513518 1.3425008665978877 4.6395599436855051 0.66260162601626027 1213.5000000000002 0.89587973461402759 3.6264534883720931
decision_type=2 10 10 2 2 2 2 2 2 2 10 2 2 10 2 2 2 2 2 2 2 2 10 2 2 2 2 2 2 2
left_child=2 10 -1 18 11 -5 -6 16 9 20 -2 19 -9 29 17 -15 -8 -12 -4 -3 22 -13 -7 -16 -23 -26 -11 -28 -21 -10
right_child=1 4 3 5 6 8 7 12 13 26 14 21 -14 15 23 -17 -18 -19 -20 28 -22 24 -24 -25 25 -27 27 -29 -30 -31
leaf_value=-0.13268673597794417 0.1072072012179619 -0.096876897342723978 0.10437592976587971 -0.097500684998888032 0.082171741906557016 -0.043974341716128039 -0.084513532524733981 -0.026121868042306928 -0.092739704150898411 -0.1197118781491243 -0.14752164020326849 0.10743674390081581 0.026811967759073643 -0.040354468354730451 -0.072583673101989862 0.036708344873559881 -0.014875599783633064 0.10799211528240366 -0.11556402225587066 -0.10751240031767494 -0.063109905016094855 -0.061720480704529151 0.033313902962808943 0.037742517036674444 -0.030815382569969921 0.059653757284551349 -0.097309740391510288 -0.0096033368688975725 -0.05134192228460125 -0.021937941356188016
leaf_weight=28719.226957067847 12369.973919697106 1158.0624994188547 32.948332756757736 4773.2797459959984 382.12989257276058 777.72202536463737 929.07854436337948 2007.5441329032183 650.70548862963915 1663.5667759776115 25.585216984152794 86.333991438150406 1740.3425182774663 715.05349107086658 134.90467920899391 707.60615766793489 673.34502006322145 695.54394419491291 5700.7223650068045 386.31829902529716 3226.1165823787451 724.12141135334969 345.16606048494577 538.00522388517857 954.92532892525196 312.64224627614021 712.19421524554491 232.17232438921928 4376.9053351730108 338.6395560130477
leaf_count=40788 190758 1890 182 7577 3000 1800 2530 6340 1140 2416 142 1340 9694 1836 683 2371 2953 10223 8545 589 6235 1921 1134 5164 2555 1251 1167 548 9923 926
internal_value=-0.0601728 0.0334762 -0.113161 -0.0849469 -0.0355054 -0.0730463 -0.0109752 -0.0176279 -0.0605873 -0.071437 0.102296 -0.0530841 -0.00154188 -0.0292934 0.0587162 -0.00202477 -0.0552514 0.0989266 -0.1143 -0.0639122 -0.0520351 -0.0222297 -0.0202166 0.0156244 -0.0278503 -0.0085014 -0.103792 -0.0757471 -0.0558976 -0.0685052
internal_weight=76090.9 27495.8 48595.1 19875.9 13731.7 14142.2 5732.44 5350.31 9368.94 6956.94 13764 7999.31 3747.89 2412 1394.04 1422.66 1602.42 721.129 5733.67 5921.29 4349 2078.02 1122.89 672.91 1991.69 1267.57 2607.93 944.367 4763.22 989.345
internal_count=327621 250956 76665 35877 43986 27150 24517 21517 19573 13300 206970 19469 16034 6273 16212 4207 5483 10365 8727 12402 9169 7067 2934 5847 5727 3806 4131 1715 10512 2066
is_linear=0
shrinkage=0.1


Tree=12
num_leaves=31
num_cat=0
split_feature=0 1 1 3 0 9 9 3 1 9 9 9 1 2 1 5 4 3 4 7 0 4 2 3 1 1 4 8 0 4
split_gain=32645.8 12178.2 2443.46 588.628 558.847 435.49 598.492 360.523 312.838 271.115 425.723 261.622 238.385 216.274 190.653 166.052 168.299 163.385 156.091 140.133 134.671 132.38 131.711 130.84 120.091 122.426 129.291 119.937 111.372 110.121
threshold=3.8198051948051952 0.57814224635573297 0.40931981564896242 3.9499216300940447 2.8121693121693125 0.94312668463611871 1.0000000180025095e-35 3.5619517543859653 0.37837485837091372 0.90967365967365976 1.0000000180025095e-35 0.46332737030411458 1.6035920880099346 2.4414009612931857 0.88033831904807569 3.1984648276080736 0.45190658707358139 4.6824686054196976 0.69180913963121027 1059.5000000000002 4.2018518518518526 0.5478432810194066 3.0677824455408698 4.4870354364736391 1.5007571935295487 0.86213061435974792 1.1903834617724536 2.5000000000000004 4.1603571428571433 1.5736326998654933
decision_type=2 10 10 2 2 2 2 2 10 2 2 2 10 2 10 2 2 2 2 2 2 2 2 2 10 10 2 2 2 2
left_child=2 8 -1 14 21 6 15 -6 -2 10 18 -8 23 28 29 16 -5 19 -9 -7 24 -4 -18 -11 25 -17 -27 -21 -10 -3
right_child=1 3 4 5 7 17 11 9 13 12 -12 -13 -14 -15 -16 20 22 -19 -20 27 -22 -23 -24 -25 -26 26 -28 -29 -30 -31
leaf_value=-0.12859808702989808 0.10625784005750208 -0.043722949912976969 0.09783253851917445 0.1151214185138274 -0.10286869870657041 -0.010950397788993052 -0.13683921298571491 0.058326999444579967 -0.0409819352157961 -0.064358410845414035 -0.10127025881960205 -0.054408963136650217 0.015933028451175765 0.016003255143500379 -0.068335683980318682 0.04035717488482865 -0.067830115377975661 0.078054693329511579 -0.0554098613917599 -0.42908954609110767 0.027750116672261616 -0.11013346465183937 0.013015507314193171 0.0043185696706332533 0.062429318682566806 -0.017686817191362211 -0.096696999465972711 0.043070065530757401 0.10717509326468058 0.015473007525039162
leaf_weight=26974.155680693686 11298.464456252754 1182.2244494184852 30.793069139122963 66.749990552663803 2625.3669134825468 1547.3554281853139 494.3118755556643 123.90485708415508 55.152106627821922 1544.9561343640089 2864.7167016118765 1741.7058323547244 711.03955034911633 686.1624179109931 4294.1517625898123 210.13253780454397 838.34924967214465 372.53047742694616 4612.4195249527693 5.415265440940856 1386.5434375815094 5096.6947468668222 265.28288821876049 338.11807581782341 166.13350035250187 618.13867055624723 311.47179000079632 824.21169815212488 633.90650644525886 428.03600393235683
leaf_count=41091 190834 3236 176 618 4071 6644 774 582 220 3043 4585 4576 2193 5919 8226 764 2473 2894 9137 8 6734 8013 933 1152 582 1765 600 4032 10223 1523
internal_value=-0.0570867 0.0288828 -0.109574 -0.0328792 -0.0809823 -0.0165622 -0.031458 -0.069823 0.100777 -0.0613133 -0.0708399 -0.0726317 -0.0333994 0.0557435 -0.0573319 -0.0076242 -0.0390712 0.0164789 -0.0524344 0.00682843 0.00604564 -0.108885 -0.048397 -0.052027 -0.0169996 -0.0285774 -0.0441597 0.0399881 0.0953166 -0.0279876
internal_weight=72348.6 27426.4 44922.2 14752.7 17948 8848.33 6098.82 12820.5 12673.7 10195.2 7601.04 2236.02 2594.11 1375.22 5904.41 3862.8 1170.38 2749.51 4736.32 2376.98 2692.42 5127.49 1103.63 1883.07 1305.88 1139.74 929.61 829.627 689.059 1610.26
internal_count=327621 253578 74043 46382 32952 33397 19819 24763 207196 20692 14304 5350 6388 16362 12985 14469 4024 13578 9719 10684 10445 8189 3406 4195 3711 3129 2365 4040 10443 4759
is_linear=0
shrinkage=0.1


Tree=13
num_leaves=31
num_cat=0
split_feature=0 1 1 1 0 2 3 3 9 9 4 9 9 7 9 1 1 0 7 3 0 3 1 1 4 5 4 4 5 2
split_gain=28307 10856.1 2544.49 592.847 538.805 395.491 390.451 327.161 318.518 507.269 246.244 197.12 376.668 181.613 179.144 175.562 169.409 152.656 140.36 139.626 132.895 131.945 126.217 119.74 141.838 108.506 102.818 97.3789 124.119 105.858
threshold=3.8198051948051952 0.54785959092817871 0.40931981564896242 0.75176276251847285 2.8121693121693125 1.4978661367769956 3.7029138513513518 3.5619517543859653 0.83156028368794332 1.0000000180025095e-35 0.58658007868906992 0.90967365967365976 1.0000000180025095e-35 1059.5000000000002 0.46332737030411458 0.33744917943266012 1.1551104427753607 4.1405221588415984 910.50000000000011 4.2505230125523026 4.5075757575757587 4.6824686054196976 1.4245440549462665 1.4416474375723385 1.0551981516642208 3.7494348669884658 0.96156581643986372 1.2882334506682909 4.1026092131977068 3.3842466058243152
decision_type=2 10 10 10 2 2 2 2 2 2 2 2 2 2 2 10 10 2 2 2 2 2 10 10 2 2 2 2 2 2
left_child=2 15 -1 5 23 -3 -5 -6 9 20 -9 12 26 21 -11 -2 -13 -17 -18 27 22 -10 -8 -4 -25 -24 -12 -7 29 -29
right_child=1 3 4 6 7 19 8 10 13 14 11 16 -14 -15 -16 17 18 -19 -20 -21 -22 -23 25 24 -26 -27 -28 28 -30 -31
leaf_value=-0.12511952214886068 0.10582393454690642 0.10789725965706101 -0.11667880695876093 -0.067715641201662985 -0.096561167786944194 -0.050179500463251571 -0.034189383558850081 0.067880755945177645 -0.027012423775715905 -0.13072357440296131 -0.020203441783521871 -0.061106639268364495 -0.096021564554540459 0.031710360207691947 -0.063150476887100834 -0.023403589751190168 -0.032292185638338848 0.079694045281208992 0.037267152072666725 0.03374862563119347 0.025823588070066641 0.059714342714420325 -0.026867608810615742 -0.013323502585226368 -0.094724625303704554 0.063099043713359212 -0.056821548526821024 -0.066691028365977595 0.060053594852044215 0.04148727330858315
leaf_weight=25050.523584797978 10149.790784090757 402.10961221531034 2867.5532009154558 3093.1194081157446 2522.5841649621725 600.71006914973259 3272.5252364948392 157.26031432300806 1812.1757143065333 525.72634895890951 970.42556177079678 1203.060459703207 2722.3491670638323 1115.7795390561223 1546.2429819703102 170.46803121268749 869.3743589669466 911.90615186840296 435.35821652412415 736.19575557857752 548.58884864300489 194.22456282377243 267.90717848390341 243.82896687835455 1753.1803434044123 268.32320509850979 3654.0951414555311 261.16659443825483 255.18800415098667 138.38972026854753
leaf_count=41091 188488 6219 4608 5716 4071 1871 9142 1068 6212 769 2292 2423 4440 4815 3233 906 2070 13684 1351 4451 2528 1445 732 641 2940 973 7048 733 1117 544
internal_value=-0.0542256 0.0273588 -0.104715 -0.0281974 -0.0753382 0.017436 -0.0368363 -0.0643755 -0.0268365 -0.0395621 -0.056266 -0.0582471 -0.0665102 -0.000631448 -0.080296 0.101741 -0.0340397 0.0634567 -0.00908189 -0.000827874 -0.0201926 -0.0186171 -0.0268205 -0.103586 -0.0847858 0.0181506 -0.0491375 -0.0211035 0.00557302 -0.0292226
internal_weight=68720.1 26270.5 42449.6 15038.4 17399.1 2393.76 12644.6 12534.5 9551.49 6429.31 10011.9 9854.66 7346.87 3122.18 2071.97 11232.2 2507.79 1082.37 1304.73 1991.65 4357.34 2006.4 3808.76 4864.56 1997.01 536.23 4624.52 1255.45 654.744 399.556
internal_count=327621 253578 74043 50500 32952 14935 35565 24763 29849 17377 20692 19624 13780 12472 4002 203078 5844 14590 3421 8716 13375 7657 10847 8189 3581 1705 9340 4265 2394 1277
is_linear=0
shrinkage=0.1


Tree=14
num_leaves=31
num_cat=0
split_feature=0 1 1 1 4 2 4 1 0 9 9 1 2 0 3 9 3 0 5 7 4 4 0 5 9 7 3 4 9 0
split_gain=24657.2 10144.3 2224.42 628.056 433.823 376.452 357.903 330.211 233.158 224.998 412.529 183.545 180.671 171.654 156.337 154.731 146.286 142.359 142.114 140.046 132.028 127.289 118.489 126.888 117.826 114.325 111.898 111.414 110.608 110.248
threshold=3.7290209790209796 0.52572618272116656 0.44782039932319945 0.80903983495589082 1.1234587995505343 1.4978661367769956 0.80101858604064058 1.7360509461936515 2.8603896103896109 0.83156028368794332 1.0000000180025095e-35 0.37837485837091372 2.3502401828962087 4.1603571428571433 3.7231800766283532 0.91734972677595639 3.4492424242424247 4.5075757575757587 3.2769667020129059 1059.5000000000002 0.40824829046386313 0.4876024917576593 4.8366666666666669 3.3842466058243152 0.47722567287784684 407.50000000000006 3.7406742354031515 0.4876024917576593 1.0000000180025095e-35 2.7709790209790213
decision_type=2 10 10 10 2 2 2 10 2 2 2 10 2 2 2 2 2 2 2 2 2 2 2 2 2 2 2 2 2 2
left_child=2 11 -1 5 7 -3 12 21 -6 10 16 -2 20 -13 -7 28 -8 -18 27 -11 -5 -4 -15 -24 -12 -17 -9 -16 -10 -23
right_child=1 3 4 6 8 14 9 26 15 19 24 13 -14 22 18 25 17 -19 -20 -21 -22 29 23 -25 -26 -27 -28 -29 -30 -31
leaf_value=-0.12212688317377152 0.1048255748054686 0.107096478839173 0.090948265888247712 0.10254028519878849 -0.10437876233703436 -0.038756946373609401 -0.079614132408761806 -0.15852881090558879 -0.069518262023640018 -0.034704238156840921 -0.11909444478407363 -0.021786805635674894 0.064891116909014362 0.097914450266474995 0.10818791345527833 -0.09237229428681383 -0.034538656228107673 0.024565474255761485 0.029519505455036166 0.0064360587837320963 -0.040687456557174671 -0.097314454339672105 -0.24961968976267018 0.058237409472467097 -0.070583447964923385 -0.034473342478334446 0.018532521872095007 -0.033020329311791934 -0.099537511696937475 -0.05376893755931187
leaf_weight=23310.98086245358 9373.785155210644 366.42524697631598 55.207850404083729 75.251953311264515 3713.8426124155521 782.57800675183535 651.79720368981361 37.416555896401405 2860.0356291234493 2394.2339228093624 673.98607236146927 213.8659640327096 485.17540162056684 525.66902973502874 60.518791001290083 450.79281806945801 4549.824473336339 447.61183744668961 1630.5021963007748 1264.4227001816034 444.63725078850985 716.83036905527115 20.915775328874588 37.199668973684311 1947.1221730560064 1400.7187804281712 774.55109657347202 728.21065663173795 2150.1448475122452 3077.6930497214198
leaf_count=41285 190834 6219 397 690 6377 2069 1118 48 5211 6943 985 741 2774 8996 602 762 11287 1843 8508 4298 1582 1277 189 501 3671 3014 2428 3078 3551 6343
internal_value=-0.0515591 0.0223564 -0.102706 -0.0260595 -0.0729934 0.0110827 -0.0363062 -0.0475789 -0.0841961 -0.0411347 -0.0502693 0.100907 0.0210024 0.0548568 9.46123e-05 -0.0732725 -0.0350563 -0.0292448 0.0126624 -0.0204863 -0.0199558 -0.0598019 0.0829347 -0.0525605 -0.0830575 -0.0485702 0.0103733 -0.0221855 -0.0824012 -0.0619952
internal_weight=65221.9 26673.7 38548.2 16502.3 15237.2 3568.23 12934.1 4661.7 10575.5 11929 8270.34 10171.4 1005.06 797.65 3201.81 6861.69 5649.23 4997.44 2419.23 3658.66 519.889 3849.73 583.784 58.1154 2621.11 1851.51 811.968 788.729 5010.18 3794.52
internal_count=327621 256928 70693 55667 29408 20476 35191 10493 18915 30145 18904 201261 5046 10427 14257 12538 14248 13130 12188 11241 2272 8017 9686 690 4656 3776 2476 3680 8762 7620
is_linear=0
shrinkage=0.1


Tree=15
num_leaves=31
num_cat=0
split_feature=0 1 1 1 0 2 3 3 2 9 9 1 1 3 9 0 5 7 1 3 1 3 9 9 5 4 0 3 5 9
split_gain=21537.5 9052.64 2320.08 512.816 405.049 341.124 306.637 277.369 223.13 201.047 310.667 192.088 189.915 175.399 157.247 149.623 136.897 127.986 126.244 170.665 124.337 129.78 138.911 156.763 119.317 116.083 106.173 103.218 100.549 98.5608
threshold=3.7290209790209796 0.52572618272116656 0.44782039932319945 0.80903983495589082 2.8121693121693125 1.4978661367769956 4.6419413919413932 3.5619517543859653 1.7005986908310777 0.90967365967365976 1.0000000180025095e-35 1.2104596346857472 0.31980429969930774 3.9459064327485387 0.85839598997493749 4.1405221588415984 5.8887820321266995 1161.5000000000002 1.5576926666355029 4.2336879432624128 1.4416474375723385 4.0354010025062665 0.92637759710930456 0.042338709677419366 3.9607678160667752 0.40824829046386313 4.260582010582012 3.9168825561312612 3.1567740231385479 0.45643939393939398
decision_type=2 10 10 10 2 2 2 2 2 2 2 10 10 2 2 2 2 2 10 2 10 2 2 2 2 2 2 2 2 2
left_child=2 12 -1 5 20 -3 8 -6 16 10 18 -11 -2 -10 24 -14 -5 -13 -9 -20 -4 -22 23 -23 -7 -8 -15 -26 -28 -12
right_child=1 3 4 6 7 14 25 9 13 11 29 17 15 26 -16 -17 -18 -19 19 -21 21 22 -24 -25 27 -27 28 -29 -30 -31
leaf_value=-0.11954318468468372 0.10469176087580045 0.10638144547075064 -0.10856345400424677 -0.063156640764806468 -0.089775958514726265 -0.045898240180363203 0.10824492368133609 -0.052044187367364471 -0.045171921753200756 -0.054440203140487899 -0.11999130520084998 -0.01278207993317397 -0.0084766755656896856 -0.028242644796539026 0.030871590009787505 0.081749136722033766 0.12248429630212346 0.067980566603151882 -0.046367136327159712 0.036541252393810265 -0.096540537048881769 -0.0011302195912447212 0.038990920821349556 -0.10642768388044721 -0.026918195574582811 0.0080674402171914041 -0.032545215072207777 0.029922769498546345 0.01706890528858929 -0.074376574796565675
leaf_weight=21524.951079696417 8370.4593325220048 333.66992057487369 2465.3767408281565 2975.662450298667 2114.1725785881281 812.9574230350554 135.94125258177519 2809.1841514930129 3888.6547626107931 1051.9614613726735 668.83416455984116 918.50685724616051 254.08173706382513 3128.306667432189 1092.1971875652671 664.41721578687429 40.260779604315758 249.5239619538188 580.11930130422115 434.05097289383411 1070.9750511646271 233.14138571172953 164.07077558338642 359.25219334661961 605.40586609020829 775.77782489359379 592.10125436633825 676.40941000729799 1317.1213486492634 1623.517700381577
leaf_count=41285 187798 6219 4487 6238 3643 2979 1387 5629 8048 2178 1029 2459 1151 8339 5810 12312 169 895 1154 1284 1895 590 473 623 1728 3524 1886 3740 5600 3069
internal_value=-0.0490045 0.0211 -0.0986113 -0.0236332 -0.0680498 0.0101812 -0.0328949 -0.057426 -0.0371626 -0.0492211 -0.0585779 -0.0234445 0.0999552 -0.0292172 0.000109244 0.0567902 -0.0606784 0.00447107 -0.041126 -0.0108835 -0.0939111 -0.0741437 -0.0424351 -0.064987 -0.01593 0.0230043 -0.0169011 0.00307658 0.00168223 -0.0876855
internal_weight=61931.1 25663.4 36267.6 16374.5 14742.7 3520.64 12853.8 10449.9 11942.1 8335.7 6115.71 2219.99 9288.96 8926.18 3186.97 918.499 3015.92 1168.03 3823.35 1014.17 4292.82 1827.44 756.464 592.394 2094.77 911.719 5037.53 1281.82 1909.22 2292.35
internal_count=327621 256928 70693 55667 29408 20476 35191 21340 30280 17697 12165 5532 201261 23873 14257 13463 6407 3354 8067 2438 8068 3581 1686 1213 8447 4911 15825 5468 7486 4098
is_linear=0
shrinkage=0.1


Tree=16
num_leaves=31
num_cat=0
split_feature=0 1 1 0 4 3 3 1 0 2 4 1 2 9 5 9 9 1 7 9 1 5 4 2 3 5 0 4 5 9
split_gain=19066.2 8846.52 1655.6 526.468 318.797 293.576 259.821 191.585 184.302 165.91 188.956 165.008 229.288 154.212 118.883 115.705 266.57 132.151 125.198 113.771 109.517 104.997 112.712 107.119 101.429 91.1393 107.803 88.0428 87.4716 81.7543
threshold=3.5278637770897836 0.50673111818947192 0.63281144409457035 4.2738636363636369 1.1428395052631026 4.4709629074559771 3.7029138513513518 1.5668600700368511 3.9800156739811916 0.89587973461402759 0.80101858604064058 0.75176276251847285 2.0126758453675748 0.91734972677595639 4.2268071048866842 0.80810147299509005 1.0000000180025095e-35 1.6859868260279451 727.50000000000011 1.0000000180025095e-35 1.1551104427753607 4.7405652883788738 1.3390266677517211 3.7256208424938388 3.3717523493642898 3.1132683346437333 4.7801932367149762 0.4876024917576593 3.7494348669884658 1.0000000180025095e-35
decision_type=2 10 10 2 2 2 2 10 2 2 2 10 2 2 2 2 2 10 2 2 10 2 2 2 2 2 2 2 2 2
left_child=2 8 -1 6 7 11 -3 -4 -2 -8 -11 12 -5 19 24 16 17 -12 -17 -6 -20 23 -23 -13 -15 26 -14 -7 -19 -9
right_child=1 3 4 5 13 27 9 29 -10 10 15 21 25 14 -16 18 -18 28 20 -21 -22 22 -24 -25 -26 -27 -28 -29 -30 -31
leaf_value=-0.11667204055668051 0.016008768864959833 -0.060774086452232805 -0.058153537657569122 0.10558544492453295 -0.073806142913865211 0.1095037486367184 -0.075347830581284247 0.029131220368301305 0.10210123536051639 0.022670749117842681 -0.027516826337207922 -0.042328169835223001 -0.013896389623915663 -0.087323664332545181 -0.087235895918582801 -0.032659520528674706 -0.069930370801904063 -0.010682796509153998 -0.014302286432450835 -0.10307315058448473 0.047037221766955413 -0.016932176038900317 0.051890427429086596 0.014246187544219878 -0.018169241106665745 0.017100022300741199 -0.1433996677559479 0.030597341828140112 0.094080912719931478 -0.028948396755797402
leaf_weight=20675.467096656561 256.49138920009136 3094.8550730571151 2274.7485210597515 241.64563434198499 2676.7064506411552 159.33399575203657 670.01438504457474 402.40510140359402 8139.8539110273123 798.08995693922043 3629.0035326182842 2244.7455857917666 304.8519130423665 280.47459144890308 702.6178946942091 1193.3538160175085 1652.0745229795575 166.09519834816456 646.44530426710844 2636.5363406836987 529.47533904016018 876.42275111377239 326.65393747389317 393.32059591263533 869.88682349026203 876.38249967247248 81.454035252332687 1256.7781252413988 153.21496033668518 609.37864872813225
leaf_count=42843 737 5881 4727 5021 5093 2019 1331 1175 198847 3613 8809 5870 1212 509 1272 3294 3073 398 1971 4844 1869 2940 1128 1309 1994 4743 270 8660 517 1652
internal_value=-0.0465756 0.0137894 -0.100274 -0.0234971 -0.0678392 -0.00100817 -0.0356303 -0.0420512 0.0994713 -0.0273851 -0.0237199 -0.011733 0.0163418 -0.079666 -0.0548256 -0.0283655 -0.0362026 -0.02209 -0.00984055 -0.088329 0.0133167 -0.0227282 0.00175423 -0.0338933 -0.0350301 -0.000737048 -0.0412026 0.0394755 0.0395861 -0.00584906
internal_weight=58818.8 27690.6 31128.2 19294.2 10452.8 6761.59 12532.6 3286.53 8396.35 9437.77 8767.75 5345.48 1504.33 7166.22 1852.98 7969.66 5600.39 3948.31 2369.27 5313.24 1175.92 3841.14 1203.08 2638.07 1150.36 1262.69 386.306 1416.11 319.31 1011.78
internal_count=327621 263512 64109 63928 21266 33172 30756 7554 199584 24875 23544 22493 11246 13712 3775 19931 12797 9724 7134 9937 3840 11247 4068 7179 2503 6225 1482 10679 915 2827
is_linear=0
shrinkage=0.1


Tree=17
num_leaves=31
num_cat=0
split_feature=0 1 1 1 3 4 4 9 9 2 9 1 3 5 9 7 0 5 1 0 9 9 7 0 0 4 5 1 4 3
split_gain=16824.2 7873.03 1727.37 506.777 306.793 294.941 241.834 205.218 475.887 176.326 169.078 162.342 148.404 160.535 146.47 142.516 142.338 135.353 137.255 127.651 123.726 113.952 107.63 104.574 91.8728 91.6135 86.4815 86.1822 92.8538 78.6614
threshold=3.5278637770897836 0.46291004988627604 0.63281144409457035 0.75527801150090956 3.6649659863945581 1.1428395052631026 0.45190658707358139 0.83156028368794332 1.0000000180025095e-35 1.4978661367769956 0.45643939393939398 1.5668600700368511 3.7231800766283532 3.9607678160667752 0.91734972677595639 941.50000000000011 4.2474489795918382 2.4414009612931857 1.461565858816767 4.5075757575757587 0.75093984962406024 1.0000000180025095e-35 1366.5000000000002 3.9800156739811916 4.775252525252526 1.3390266677517211 4.2268071048866842 1.0757697803456934 1.796205523454746 4.3711981566820279
decision_type=2 10 10 10 2 2 2 2 2 2 2 10 2 2 2 2 2 2 10 2 2 2 2 2 2 2 2 10 2 2
left_child=2 23 -1 9 27 11 -6 8 17 16 -10 -4 24 20 21 -9 -3 -8 19 -19 -14 -7 26 -2 25 -11 -16 28 -5 -17
right_child=1 3 5 4 6 14 7 15 10 12 -12 -13 13 -15 22 29 -18 18 -20 -21 -22 -23 -24 -25 -26 -27 -28 -29 -30 -31
leaf_value=-0.11457857104081166 0.022833319502594637 -0.015556676208436022 -0.053610815564539872 -0.041781551465306509 0.09602471663364609 -0.069162468599600443 -0.05771543873789408 -0.018586772611540306 -0.1095974856395364 -0.060869491566326109 -0.051342997821877262 -0.0052756807275601905 -0.043822893817554665 0.043464518905398632 -0.041008860107907823 0.0031128512148358369 0.10513502131644954 -0.02159474974961503 0.032031063515835005 0.034500171524433597 0.027722745530067056 -0.099212199626760159 0.016382763676290647 0.10264578660055762 -0.14157140074729976 0.015314733322552038 -0.088762175649743341 -0.066402446934335987 0.057543090276425138 0.049833992406955761
leaf_weight=19032.166773959994 167.98599679023027 136.31435558199883 2223.5160053297877 1400.7981185019016 175.91286201030016 2576.1377912163734 652.88219300657511 2347.510981015861 670.89630348980427 310.64836566895247 1935.8417801707983 1010.7356646358967 533.59712454304099 1175.2884249873459 974.91818051040173 965.0169927328825 345.0964369662106 3963.3367568254471 692.50056497752666 451.93108052760363 441.87067434936762 2473.7026639729738 211.18288084864616 7218.0313036888838 71.750295281410217 320.89591893553734 620.68824656307697 2125.5722291618586 100.90043638646603 575.12207028269768
leaf_count=42843 516 323 4727 2864 1916 5093 1508 7676 1060 808 4006 2827 2680 7919 2089 3041 7825 10384 2089 2196 3060 4844 551 195092 166 1246 1135 3929 281 2927
internal_value=-0.0442391 0.0129702 -0.096845 -0.0204911 -0.0278584 -0.0633983 -0.020392 -0.0220631 -0.0308837 0.0149779 -0.066336 -0.0385056 0.00553497 0.0185746 -0.0751401 -0.00307848 0.0709604 -0.0148413 -0.00936104 -0.0158531 -0.0114139 -0.0838826 -0.0507055 0.100831 -0.0343417 -0.0221593 -0.0595848 -0.0534464 -0.0351078 0.0205596
internal_weight=55902.7 26779.7 29123 19393.7 16058.2 10090.9 12431 12255 8367.39 3335.46 2606.74 3234.25 2854.05 2150.76 6856.63 3887.65 481.411 5760.65 5107.77 4415.27 975.468 5049.84 1806.79 7386.02 703.295 631.544 1595.61 3627.27 1501.7 1540.14
internal_count=327621 263512 64109 67904 43877 21266 36803 34887 21243 24027 5066 7554 15879 13659 13712 13644 8148 16177 14669 12580 5740 9937 3775 195608 2220 2054 3224 7074 3145 5968
is_linear=0
shrinkage=0.1


Tree=18
num_leaves=31
num_cat=0
split_feature=0 1 1 0 4 1 2 3 9 9 9 1 0 1 2 9 7 0 8 8 4 4 3 9 9 0 5 1 9 2
split_gain=14852.8 7024.81 1793.8 472.113 271.528 242.177 277.711 190.408 143.87 169.5 141.402 140.081 139.58 131.607 138.886 112 102.875 95.4062 93.8968 103.541 89.376 89.1319 87.003 85.3252 168.719 82.0396 122.038 118.098 89.3121 80.8965
threshold=3.5278637770897836 0.44782039932319945 0.63281144409457035 4.2018518518518526 1.1428395052631026 0.75176276251847285 2.0126758453675748 3.8024390243902442 0.90661337209302328 1.0000000180025095e-35 0.44636015325670503 1.7360509461936515 2.3431372549019613 1.7360509461936515 1.8688348091416842 0.96019801980198027 851.50000000000011 3.9800156739811916 83.500000000000014 31.500000000000004 1.0744840716977235 0.5478432810194066 3.4492424242424247 0.7835585585585586 0.042338709677419366 4.775252525252526 4.2696729980286863 0.54785959092817871 0.77032967032967048 2.249904835165133
decision_type=2 10 10 2 2 10 2 2 2 2 2 10 2 10 2 2 2 2 2 2 2 2 2 2 2 2 2 10 2 2
left_child=2 17 -1 7 11 6 -5 -3 9 22 -11 21 -6 14 -9 -14 -17 -2 19 -16 -12 -4 -7 24 -15 27 -27 -8 -29 -10
right_child=1 3 4 5 12 8 25 13 29 10 20 -13 15 23 18 16 -18 -19 -20 -21 -22 -23 -24 -25 -26 26 -28 28 -30 -31
leaf_value=-0.11271647374357768 0.020723672045228871 -0.051708137935631948 0.068337112718105969 0.10478765007548092 -0.0971166487900995 -0.060145844679995647 0.090849191724454909 -0.049317803936002123 -0.015174315979189607 -0.11014921483278046 0.014166410149816597 0.0030156455096186784 -0.071911314544787719 0.049804954309275486 -0.0089871806780943628 -0.057359853505370068 0.0010261334862624453 0.10238813207727415 0.15893860043625718 -0.038715524094435592 -0.050085223128236538 -0.049892666917485201 4.5474301040928151e-06 0.070344734000164416 -0.072756060862565544 -0.077668424493874524 0.037097797686571059 -0.010605311437573324 0.045023535287649803 0.028530713328526885
leaf_weight=17490.90289003402 146.26304460316896 3345.6071210727096 65.517419748008251 390.12815012410283 1543.1124990805984 268.07063591480255 216.2402977719903 2033.0113085135818 666.65503705665469 300.39787977933884 296.68286573886871 736.27973542362452 3644.8325371965766 248.13263367861509 3318.2584111243486 931.41704113036394 446.42377762496471 6527.3251173235476 29.666007347404957 1810.9667470902205 801.03041751682758 2383.3195337206125 2335.3720916435122 218.96712851524353 205.21295741945505 220.71963608637452 159.68973115459085 754.46306451410055 467.41031841933727 1161.2047811299562
leaf_count=42843 457 6688 356 9441 3224 503 3759 4784 2426 471 926 2148 7508 799 9363 1876 1104 194337 114 4631 1667 5050 8179 913 391 1152 1262 3166 2633 5450
internal_value=-0.0419972 0.0121888 -0.0935569 -0.0184644 -0.0591891 3.06061e-05 0.02823 -0.0317264 -0.0106536 -0.0212713 -0.0493562 -0.0352303 -0.0708117 -0.0232257 -0.027181 -0.0627301 -0.0384427 0.100598 -0.0184573 -0.0194833 -0.0327197 -0.0467295 -0.006189 0.0190848 -0.00567393 0.0118061 -0.0294914 0.0227301 0.0106747 0.0125907
internal_weight=53163.3 25921.5 27241.8 19247.9 9750.9 8038.06 2208.65 11209.8 5829.41 4001.55 1398.11 3185.12 6565.79 7864.22 7191.9 5022.67 1377.84 6673.59 5158.89 5129.23 1097.71 2448.84 2603.44 672.313 453.346 1818.52 380.409 1438.11 1221.87 1827.86
internal_count=327621 263512 64109 68718 21266 41035 21413 27683 19622 11746 3064 7554 13712 20995 18892 10488 2980 194794 14108 13994 2593 5406 8682 2103 1190 11972 2414 9558 5799 7876
is_linear=0
shrinkage=0.1


Tree=19
num_leaves=31
num_cat=0
split_feature=0 1 1 0 3 1 2 9 9 3 1 9 9 9 1 1 0 4 4 3 5 3 7 0 2 3 5 1 1 4
split_gain=13167.2 6615.01 1595 481.929 278.403 253.689 271.743 205.78 345.791 198.098 150.674 145.077 151.455 127.494 125.098 121.537 102.001 100.716 100.357 91.9409 86.9681 85.7887 88.0365 84.5412 83.0161 82.8756 79.4686 98.9143 75.1499 72.7512
threshold=3.453079178885631 0.40931981564896242 0.89462260879185107 4.1603571428571433 4.0049504950495054 0.75527801150090956 2.0126758453675748 0.83156028368794332 1.0000000180025095e-35 4.2718218036943147 1.8575663782972935 0.90661337209302328 1.0000000180025095e-35 0.46332737030411458 1.5576926666355029 0.99111023226590966 3.0678160919540236 1.2860500881956483 0.40824829046386313 3.9168825561312612 5.0205366077443463 4.6881944444444459 1528.5000000000002 2.6043478260869573 0.89587973461402759 3.2873015873015876 2.524928003624769 1.3643260552236944 1.9181960305868613 1.0988410374878135
decision_type=2 10 10 2 2 10 2 2 2 2 10 2 2 2 10 10 2 2 2 2 2 2 2 2 2 2 2 10 10 2
left_child=2 -2 16 9 -4 6 -5 8 14 15 21 12 26 -14 23 -3 -1 18 -11 -8 -21 22 -9 -6 -20 -17 -7 -28 -26 -15
right_child=1 3 4 5 7 11 19 10 -10 17 -12 -13 13 29 -16 25 -18 -19 24 20 -22 -23 -24 -25 28 -27 27 -29 -30 -31
leaf_value=-0.11191806180570066 0.10135036140787 -0.02201403026133306 -0.072427462640352713 0.10047721305088352 -0.088010440876289703 -0.046184426667478927 -0.016767894652163693 -0.037502625412746252 -0.089129752241790094 0.09708884762927239 0.071256752875621762 0.011575767569983813 -0.099344717442626351 0.0069865405652590881 0.025637104701471698 -0.081651546466723179 -0.08134717720297352 0.053451523360155156 -0.054716425147118421 0.012522051841033457 0.073343182653800784 0.10665519046112082 0.099687443137614046 -0.014026282195250529 -0.0166128877396375 -0.044091606134935755 -0.0063751360548648384 0.066293665173311908 0.051757680522241806 -0.046594936552353854
leaf_weight=16122.466528095305 5937.5881962291896 2487.5793384797871 3251.5067804306746 419.94016179814935 233.51566272228956 448.14836660772562 714.07573929801583 597.62123244255781 1062.4290975108743 75.682984441518784 268.52191343158484 2014.5136365331709 347.25619845092297 361.16133113950491 526.96083978563547 668.09647320210934 1170.6634183228016 215.04756496846676 559.72223661094904 898.82708711922169 318.37344523891807 52.063304007053375 50.747375465929508 456.16752903163433 2972.7243320792913 4867.1235162913799 2303.2352524399757 203.89243413507938 169.95552953332663 849.29554510116577
leaf_count=43130 192263 5942 6958 10786 493 1259 3047 1339 2240 828 934 8623 571 1081 1479 1215 2280 685 1223 7008 3346 241 172 1061 8480 10217 7556 787 616 1761
internal_value=-0.0398163 0.00820753 -0.0939754 -0.0182607 -0.0517421 -0.000593072 0.0275715 -0.0310346 -0.0474467 -0.0313155 0.0075683 -0.010738 -0.0206984 -0.0459312 -0.0110471 -0.0403739 -0.109849 -0.0131156 -0.0169046 0.0117187 0.0284306 -0.0168477 -0.0267649 -0.0390761 -0.0192348 -0.0486251 -0.00739834 -0.000465338 -0.0129154 -0.030608
internal_weight=50624.9 26832.2 23792.7 20894.7 6499.53 8878.72 2351.22 3248.03 2279.07 12015.9 968.954 6527.5 4512.99 1557.71 1216.64 8022.8 17293.1 3993.13 3778.09 1931.28 1217.2 700.432 648.369 689.683 3702.4 5535.22 2955.28 2507.13 3142.68 1210.46
internal_count=327621 267294 60327 75031 14917 45825 24187 7959 5273 29206 2686 21638 13015 3413 3033 17374 45410 11832 11147 13401 10354 1752 1511 1554 10319 11432 9602 8343 9096 2842
is_linear=0
shrinkage=0.1


Tree=20
num_leaves=31
num_cat=0
split_feature=0 1 1 0 1 2 3 1 3 3 2 5 4 2 4 4 9 9 0 3 1 0 8 8 2 4 9 0 0 5
split_gain=11733.4 5954.6 1556.55 419.295 236.462 245.81 210.499 196.617 160.927 131.917 117.668 166.421 146.9 107.42 104.224 102.255 93.0782 147.823 90.3849 86.0404 81.034 80.1877 80.0526 84.9109 103.241 82.294 89.5681 77.7319 76.4213 76.1459
threshold=3.4045454545454548 0.37837485837091372 0.84337818919243401 4.1126984126984132 0.75527801150090956 1.8688348091416842 4.0049504950495054 2.041456297227739 3.6448283515833091 3.3339021615472135 2.1383330595080281 5.8621277553994462 0.80101858604064058 0.89587973461402759 0.69180913963121027 0.5478432810194066 0.9801685393258428 0.042338709677419366 2.6043478260869573 4.2505230125523026 1.1657419088589662 4.6118055555555566 25.500000000000004 20.500000000000004 2.4414009612931857 0.98739697420492967 0.72783389450056124 3.0678160919540236 4.775252525252526 4.1026092131977068
decision_type=2 10 10 2 10 2 2 10 2 2 2 2 2 2 2 2 2 2 2 2 10 2 2 2 2 2 2 2 2 2
left_child=2 -2 27 8 5 -5 -4 15 -3 -6 11 20 -12 -10 -15 -8 17 -9 -17 28 -11 -14 23 25 -25 -16 -27 -1 -7 -30
right_child=1 3 6 4 9 19 7 16 13 10 12 -13 21 14 22 18 -18 -19 -20 -21 -22 -23 -24 24 -26 26 -28 -29 29 -31
leaf_value=-0.11070553324591488 0.10168821137591255 -0.051676568314634297 -0.068885420003137646 0.099067043986802772 -0.056443428986572113 0.0069270934978476612 0.09801942820182985 0.049809702875451549 -0.051062826300154046 -0.04409355204152491 0.064850141450205664 0.11886729802901885 -0.0077583998664728085 0.039893854410729242 0.0091739671674387555 -0.073737917885896731 0.075916587985503964 -0.063415533351356287 -0.034086190758546138 0.037950711245117633 -0.00089571022079115248 0.034173445540901563 -0.032164443995356243 -0.017636623175938268 0.048815635058094532 -0.042456822912966728 0.00035694303033728875 -0.079304570589486464 -0.10959510941584945 0.01114200499176745
leaf_weight=14649.1135937199 5321.4541614111513 2554.8254303485155 3127.2645671665668 385.94785320945084 570.59199103713036 1020.3758797366172 49.174668692052364 227.72331124544144 1201.0690865144134 1433.897726405412 353.06230371445417 76.853092141449451 3559.0797375068069 289.97446338459849 748.04212495684624 870.74482482671738 188.25897079706192 233.57740619033575 1691.8347630649805 780.05874799191952 622.89618252590299 523.08525660634041 3526.4691658839583 477.79686550796032 457.80874701589346 1562.0757597535849 711.06843942776322 833.17706882208586 124.07083396427333 90.218653507530689
leaf_count=42843 190834 5278 7017 11030 1096 5559 315 696 2622 4100 2502 396 11063 1646 2156 2008 682 549 3857 7843 2025 2201 8394 1179 1387 3346 1929 1712 563 793
internal_value=-0.0377156 0.00717115 -0.0918788 -0.016701 -0.00119296 0.0259571 -0.0503485 -0.0325736 -0.0295336 -0.0103223 -0.00631604 -0.0256126 0.00296693 -0.0232298 -0.0189293 -0.0448186 0.0166611 -0.00752135 -0.0475595 0.0119519 -0.0310112 -0.00238529 -0.0212087 -0.0114444 0.0148797 -0.0195964 -0.0290641 -0.109016 -0.00447417 -0.0587632
internal_weight=48261.6 26390.7 21870.9 21069.3 9540.14 2400.67 6388.58 3261.31 11529.1 7139.47 6568.87 2133.65 4435.23 8974.3 7773.24 2611.75 649.56 461.301 2562.58 2014.72 2056.79 4082.16 7483.26 3956.79 935.606 3021.19 2273.14 15482.3 1234.67 214.289
internal_count=327621 267942 59679 77108 49171 25788 15124 8107 27937 23383 22287 6521 15766 22659 20037 6180 1927 1245 5865 14758 6125 13264 18391 9997 2566 7431 5275 44555 6915 1356
is_linear=0
shrinkage=0.1


Tree=21
num_leaves=31
num_cat=0
split_feature=0 1 1 0 3 4 3 3 5 9 9 9 1 1 9 9 3 9 4 4 5 2 1 5 7 8 1 0 2 5
split_gain=10476.5 5541.82 1291.93 381.575 187.113 183.945 154.682 153.936 152.436 130.896 197.397 143.612 119.834 111.847 110.284 130.646 104.251 80.3214 80.0504 79.0132 82.6566 92.8015 80.7485 77.2898 116.437 82.4599 76.5188 93.2762 75.6453 107.774
threshold=3.253571428571429 0.46291004988627604 0.77985146836238362 4.1091269841269851 4.6480908152734788 1.311511333444489 3.0166666666666671 4.3151274412446226 4.5591125415341898 0.90661337209302328 1.0000000180025095e-35 0.46332737030411458 1.7904058613809573 0.29146003888153144 0.92637759710930456 1.0000000180025095e-35 3.2873015873015876 0.90967365967365976 1.6009585098713515 1.8350868651171064 3.1132683346437333 3.0677824455408698 1.5007571935295487 5.0657496176235997 996.50000000000011 2.5000000000000004 0.83711947753830562 4.546536796536798 2.4414009612931857 4.4484992763719129
decision_type=2 10 10 2 2 2 2 2 2 2 2 2 10 10 2 2 2 2 2 2 2 2 10 2 2 2 10 2 2 2
left_child=2 13 -1 7 6 8 -5 16 14 10 19 -12 28 -2 15 -4 -3 -7 23 20 21 -8 26 24 -11 -25 -22 -28 -9 -30
right_child=1 3 5 4 -6 17 9 12 -10 18 11 -13 -14 -15 -16 -17 -18 -19 -20 -21 22 -23 -24 25 -26 -27 27 -29 29 -31
leaf_value=-0.10893660830952497 0.10242754229244472 -0.069063453798850635 0.0062848611980972557 -0.073932334960360335 0.04598472583221324 -0.079119184397393238 -0.047546170597111907 -0.033108099957458705 -0.057446741129053958 -0.022845131440066321 -0.09714321722463494 -0.025771258276506972 0.034601839778109066 0.047834453833382216 0.034084749514674932 -0.069088731991564886 -0.032585750851951034 -0.040704682099095224 0.057668211499004876 0.1373849681488849 0.025614094637020825 0.022733636088081571 0.10828847155176416 -0.34107160431959899 0.030353235249271616 0.048501968216500053 -0.016550911564252171 0.049084754128049732 0.023140047222473245 -0.030410165607854568
leaf_weight=13671.18062543869 4697.398379329592 868.81258736550808 511.82871218025684 327.26576573215425 737.10735600627959 1998.0910257399082 655.82773065380752 1730.7464839220047 1187.7607549503446 1053.7096524108201 348.39827506057918 1477.6420214623213 481.92308360338211 407.8566406276077 421.58117525279522 417.58133538067341 7976.2372174039483 748.09203274548054 374.71338613703847 41.608334641903639 1066.360681168735 263.32485120743513 76.450838088989258 5.4984373450279227 674.97991545312107 458.63634953461587 1640.5744685232639 249.43621197342873 786.15243664756417 720.06740229576826
leaf_count=43417 186814 1757 1434 787 6911 4781 2693 4563 2730 5557 693 4801 1722 8805 1328 990 17835 1753 1640 187 7837 947 328 7 4218 2833 4598 1152 2682 1821
internal_value=-0.0356697 0.00419526 -0.092705 -0.0175728 -0.00239402 -0.0507168 -0.00648613 -0.0289915 -0.0313134 -0.00385439 -0.0121522 -0.0393886 -0.0119208 0.0980661 -0.00833751 -0.0275803 -0.0361688 -0.0686546 0.0149537 0.000301412 -0.00114187 -0.027412 0.00681976 0.00765455 -0.00207343 0.0438868 0.00419581 -0.00788857 -0.0188471 -0.00246031
internal_weight=46076.8 27120.7 18956.1 22015.5 9451.53 5284.94 8714.43 12563.9 2538.75 8387.16 5819.62 1826.04 3718.89 5105.26 1350.99 929.41 8845.05 2746.18 2567.54 3993.58 3951.97 919.153 3032.82 2192.82 1728.69 464.135 2956.37 1890.01 3236.97 1506.22
internal_count=327621 271188 56433 75569 45189 13016 38278 30380 6482 37491 23236 5494 10788 195619 3752 2424 19592 6534 14255 17742 17555 3640 13915 12615 9775 2840 13587 5750 9066 4503
is_linear=0
shrinkage=0.1


Tree=22
num_leaves=31
num_cat=0
split_feature=0 1 1 0 1 0 3 9 9 3 0 9 9 9 3 4 2 3 3 4 9 4 2 5 4 7 1 5 3 4
split_gain=9393.91 4996.86 1220.62 358.751 193.507 171.143 161.303 156.637 165.984 149.176 140.945 131.871 125.352 391.197 131.371 128.372 119.685 108.882 106.054 105.169 105.139 104.984 83.2404 79.0556 100.702 79.0311 74.0023 72.874 71.0639 114.786
threshold=3.2052631578947373 0.37837485837091372 0.77985146836238362 4.1603571428571433 0.54785959092817871 2.4083333333333337 3.2873015873015876 0.90661337209302328 1.0000000180025095e-35 3.5380986937590717 4.8366666666666669 0.46332737030411458 0.80810147299509005 1.0000000180025095e-35 4.4709629074559771 1.2882334506682909 0.89587973461402759 3.4492424242424247 4.1672749391727502 0.98739697420492967 0.47722567287784684 1.3762584275271561 3.7726948748059121 2.8617925509761908 0.5478432810194066 638.50000000000011 1.2922548684852064 3.8606743063089755 4.2581351027034664 1.2836230202007413
decision_type=2 10 10 2 10 2 2 2 2 2 2 2 2 2 2 2 2 2 2 2 2 2 2 2 2 2 10 2 2 2
left_child=2 -2 -1 6 10 -4 -3 8 17 -7 -5 -10 13 19 15 -14 21 -6 25 23 -15 -11 28 24 -8 -17 -25 -12 29 -9
right_child=1 3 5 4 7 9 12 22 11 16 27 -13 14 20 -16 18 -18 -19 -20 -21 -22 -23 -24 26 -26 -27 -28 -29 -30 -31
leaf_value=-0.10798293318133963 0.10079509816824042 -0.066181814365074185 -0.07640931803001702 0.081176541721653728 -0.05179339748645332 -0.077075551017821986 0.096669337425208501 -0.054896546481149645 -0.091244645711781286 0.052728428918809855 -0.16985677636588173 -0.02425397973454798 -0.03721976903434273 -0.096317203862530065 0.027907018435529219 -0.034736791178153203 -0.036290603355917744 0.0048057327242026484 0.068350889205393561 -0.023964831667065395 -0.050343757288908254 -0.033999815238912927 0.053180844409108322 0.0016313923138831484 -0.066892036824073478 0.015280209804679028 0.054522209964182715 0.033512122897705852 0.030910653210350438 0.011928704201413232
leaf_weight=12378.924844160676 4395.2670215088874 924.07663959264755 1528.1987237334251 437.24712350033224 378.05414408631623 696.15453210473061 44.332484256476164 357.75597486272454 366.36850001104176 325.5239677503705 36.303894374519587 1484.4424562994391 1580.6436684839427 677.07609160244465 810.12307765707374 576.18054106831551 2041.0076417997479 3366.8155017308891 216.71885603293777 4710.5241702497005 1875.0764296576381 244.33736089617014 504.28825636953115 1062.574737880379 249.43326143175364 699.35192119702697 352.22505908459425 34.236311785876751 817.58735441043973 913.098697129637
leaf_count=43162 190834 1937 3919 10771 937 1629 384 1313 728 1090 282 4536 3830 1283 3485 1262 5089 14798 719 10805 4096 613 2728 2858 538 1816 1146 554 6792 3687
internal_value=-0.0336676 0.0032806 -0.0913406 -0.01579 0.000113237 -0.0487336 -0.0258273 -0.00360147 -0.013016 -0.0359444 0.0600154 -0.0375148 -0.0229262 -0.0294231 -0.00791615 -0.0173604 -0.0249773 -0.000908094 0.00367532 -0.016256 -0.0625403 0.0155423 0.0167172 0.00499721 -0.0422088 -0.00731335 0.014799 -0.0711528 0.00791244 -0.00688315
internal_weight=44083.9 26869.8 17214.1 22474.5 8696.2 4835.22 13778.3 8188.41 5595.68 3307.02 507.787 1850.81 12854.3 8971.24 3883.02 3072.89 2610.87 3744.87 1492.25 6419.09 2552.15 569.861 2592.73 1708.57 293.766 1275.53 1414.8 70.5402 2088.44 1270.85
internal_count=327621 272119 55502 81285 47126 12340 34159 35519 20999 8421 11607 5264 32222 21110 11112 7627 6792 15735 3797 15731 5379 1703 14520 4926 922 3078 4004 836 11792 5000
is_linear=0
shrinkage=0.1


Tree=23
num_leaves=31
num_cat=0
split_feature=0 1 1 0 1 3 9 9 3 2 3 4 2 9 9 3 9 5 2 7 7 4 3 4 2 1 7 1 5 5
split_gain=8431.76 4514.29 1079.82 371.311 225.314 164.252 141.883 222.378 138.342 137.557 130.847 131.014 123.212 112.512 303.355 113.733 110.742 106.907 157.86 101.987 94.8638 97.2784 91.1661 135.288 101.936 83.7767 82.1951 81.2449 77.6878 74.4062
threshold=3.0128205128205132 0.22651126581027045 0.97251476352540356 4.1091269841269851 0.54785959092817871 3.9686681937172779 0.94482496194824972 1.0000000180025095e-35 3.6448283515833091 0.89587973461402759 3.3339021615472135 0.45190658707358139 2.602003343538398 0.91341829085457282 1.0000000180025095e-35 4.4622507122507136 0.74090608465608476 3.7256208424938388 3.1132683346437333 1517.5000000000002 411.50000000000006 1.2042768829618982 4.2757515473032717 1.3425008665978877 4.4942230200312032 1.5668600700368511 1278.5000000000002 1.5576926666355029 4.6200466650627661 5.8081019072118663
decision_type=2 10 10 2 10 2 2 2 2 2 2 2 2 2 2 2 2 2 2 2 2 2 2 2 2 10 2 10 2 2
left_child=2 -2 -1 8 12 -4 7 27 -3 -6 -11 -12 -5 14 -10 20 -16 18 -13 -18 -15 -22 23 -19 28 -8 -26 -7 -25 -24
right_child=1 3 5 4 9 6 25 -9 13 10 11 17 -14 15 16 -17 19 22 -20 -21 21 -23 29 24 26 -27 -28 -29 -30 -31
leaf_value=-0.10705736290790424 0.10215938203366925 -0.044785274812741263 -0.067955480334028026 0.10330402073258914 0.10401577586337639 -0.038632012319859549 -0.026313854139582656 -0.080246465546745513 -0.013351412118150111 -0.047138726008272749 0.10158078109330687 -0.031279498444023578 0.013259050492169501 -0.050374151092758605 -0.068041928573742624 0.029450982167475312 -0.03917992764459774 -0.018896315526542865 0.013619251049777105 0.065365443322309813 -0.031448445216666836 0.015502227766844729 0.018172182454503062 0.001823942022654803 -0.12019371348568758 0.053452883482915027 0.10059695075490722 0.027679957952727253 0.05839521153395421 0.082418833591798621
leaf_weight=11355.74473939091 3829.4771849624813 2929.8252311572433 1684.3117786720395 309.25463512539864 116.68394353240728 342.86124803870916 234.38464714586735 743.22804062068462 5260.8378459885716 688.42653827928007 120.91327902674675 2351.8829951640218 298.77078068070114 577.18698804825544 1846.9316701106727 755.27328974753618 452.47253637760878 1932.9065003246069 1173.9484772235155 117.55358025804162 750.77010920271277 1070.581541897729 1257.1561202816665 417.94082608632743 77.059165000915527 300.44618435204029 21.583702482283115 400.68194567412138 579.11803996562958 210.43854509666562
leaf_count=43353 185083 6620 4345 11023 3359 885 568 1889 13231 1574 1724 8248 5774 1280 3970 3277 1073 5875 4463 381 1860 2998 7244 1399 162 986 93 1169 2314 1401
internal_value=-0.031757 0.00153456 -0.0917614 -0.0149912 0.000152043 -0.044891 -0.0256746 -0.0415639 -0.0255069 -0.00385064 -0.00527582 -0.00173661 0.0590578 -0.0202923 -0.0268244 -0.00439022 -0.0561502 -0.00329388 -0.0163302 -0.0176201 -0.0150464 -0.00385107 0.00692891 -0.0029834 0.0250883 0.0184959 -0.0718833 -0.00289769 0.034682 0.0273845
internal_weight=42208.7 27147 15061.7 23317.5 9556.08 3705.91 2021.6 1486.77 13761.4 8948.06 8831.37 8142.95 608.025 10831.6 7677.8 3153.81 2416.96 8022.03 3525.83 570.026 2398.54 1821.35 4496.2 3028.61 1095.7 534.831 98.6429 743.543 997.059 1467.59
internal_count=327621 274426 53195 89343 54653 9842 5497 3943 34690 37856 34497 32923 16797 28070 18655 9415 5424 31199 12711 1454 6138 4858 18488 9843 3968 1554 255 2054 3713 8645
is_linear=0
shrinkage=0.1


Tree=24
num_leaves=31
num_cat=0
split_feature=0 1 1 0 1 9 9 3 7 4 3 3 2 9 9 9 1 5 5 2 2 2 3 5 4 0 5 5 7 2
split_gain=7588.75 4032.18 1095.94 309.049 177.966 150.72 224.595 136.994 124.435 123.531 120.872 119.925 110.934 108.36 278.925 108.007 104.555 96.9368 100.209 113.489 100.788 94.5931 119.599 113.971 111.616 89.3859 84.879 80.0917 79.0644 74.9136
threshold=3.0128205128205132 0.22651126581027045 0.97251476352540356 4.0421472937000891 0.54785959092817871 0.90967365967365976 1.0000000180025095e-35 4.6480908152734788 1171.5000000000002 1.0571937217198746 3.2873015873015876 3.4924242424242427 2.602003343538398 0.91341829085457282 1.0000000180025095e-35 0.45643939393939398 1.6035920880099346 5.0657496176235997 4.923617305492666 3.1567740231385479 0.89587973461402759 3.2769667020129059 3.9459064327485387 5.1209788959100075 1.5563945916071529 4.0840395480225995 3.1567740231385479 3.9796379800581989 1544.5000000000002 3.3497501700808394
decision_type=2 10 10 2 10 2 2 2 2 2 2 2 2 2 2 2 10 2 2 2 2 2 2 2 2 2 2 2 2 2
left_child=2 -2 -1 10 12 6 9 8 17 -4 -3 -7 -5 14 -12 -16 29 18 19 20 -6 23 -23 24 -19 -24 -14 -13 -17 -15
right_child=1 3 5 4 7 11 -8 -9 -10 -11 13 27 26 16 15 28 -18 21 -20 -21 -22 22 25 -25 -26 -27 -28 -29 -30 -31
leaf_value=-0.10612657524118735 0.10194967250097486 -0.061018182061751691 0.034307384132813416 0.095073113695227918 0.10367447669026886 -0.074727980375413838 -0.084181466555845019 0.038951401763425701 0.012456735087586528 -0.041109311289886791 -0.015469274014867624 0.036875607875223919 -0.06665970116850109 -0.022645718376334421 -0.091337010403773664 -0.05179684242027896 0.02909299055045278 0.15788983165919307 -0.10263909790234869 0.0048006294920156173 -0.032153996494581415 -0.059981403717336602 -0.10767547799446212 0.010719256421129239 -0.09520712314537326 0.051493171183886355 0.04580099703720359 -0.029668174638048148 0.0035010905464569059 0.021192725488822808
leaf_weight=10360.627260066569 3471.8187796156853 826.46993708796799 273.67708189040422 299.67091490328312 55.600364450365305 211.74822090566158 1287.3729520663619 688.52023831382394 2348.1372557282448 1052.2874672189355 5937.7708536908031 455.07312149554491 99.017570119351149 2248.932799777016 613.81498515605927 1704.4883172754198 668.5012018494308 98.596469026058912 149.67530383355916 1351.7515516206622 3128.6473425254226 408.03115053474903 41.913913786411285 1165.4094435293227 21.164470534771681 222.98663903772831 208.27681210637093 300.18265724927187 304.79721581935883 471.53976949304342
leaf_count=43353 185083 1877 860 11335 1738 500 3551 6042 9643 2768 14466 1407 1572 5845 1304 3889 2269 487 421 4673 10295 909 88 4565 51 1136 4464 756 825 1449
internal_value=-0.0299063 0.00147831 -0.0896443 -0.0136458 -0.000745519 -0.0419488 -0.0544295 -0.00403896 -0.00733078 -0.0255434 -0.024033 -0.0082195 0.0517813 -0.0214751 -0.0274665 -0.0546239 -0.0063402 -0.0143244 -0.0221329 -0.0194764 -0.0297823 0.00436116 -0.0260132 0.0202656 0.113162 0.0263087 0.00956348 0.0104272 -0.0434085 -0.0150472
internal_weight=40476.5 26535.5 13941 23063.7 10287.4 3580.34 2613.34 9680.43 8991.91 1325.96 12776.3 967.004 606.965 11949.8 8560.87 2623.1 3388.97 6643.78 4685.67 4536 3184.25 1958.1 672.932 1285.17 119.761 264.901 307.294 755.256 2009.29 2720.47
internal_count=327621 274426 53195 89343 57419 9842 7179 40048 34006 3628 31924 2663 17371 30047 20484 6018 9563 24363 17127 16706 12033 7236 2133 5103 538 1224 6036 2163 4714 7294
is_linear=0
shrinkage=0.1


Tree=25
num_leaves=31
num_cat=0
split_feature=0 1 1 0 1 0 4 3 9 9 3 2 7 9 4 3 5 2 4 9 9 9 9 7 8 3 2 0 4 7
split_gain=6824.72 3604.97 1109.84 255.613 153.24 142.708 128.725 117.342 113.659 173.033 111.047 108.899 106.823 97.8534 94.5363 90.6315 99.4315 96.0752 85.5934 83.6652 79.0878 241.02 82.49 81.7074 95.8576 78.1165 75.5307 75.3684 74.8134 72.0135
threshold=3.0128205128205132 0.22651126581027045 0.88367117146083451 4.0050505050505061 0.5110319555100814 2.26969696969697 0.45190658707358139 3.5380986937590717 0.94482496194824972 1.0000000180025095e-35 3.6448283515833091 0.89587973461402759 1117.5000000000002 0.71261160714285732 0.37837485837091361 3.4924242424242427 5.0657496176235997 2.602003343538398 1.3499346346931036 1.0000000180025095e-35 0.91341829085457282 1.0000000180025095e-35 0.45643939393939398 411.50000000000006 52.500000000000007 4.3711981566820279 3.2769667020129059 4.6939799331103691 0.8294953314304182 348.50000000000006
decision_type=2 10 10 2 10 2 2 2 2 2 2 2 2 2 2 2 2 2 2 2 2 2 2 2 2 2 2 2 2 2
left_child=2 -2 -1 10 -5 -4 -6 -7 9 28 -3 -8 15 19 -12 -13 18 -18 25 -14 21 -16 -23 -22 26 27 -25 -17 -9 -10
right_child=1 3 5 4 6 7 11 8 29 -11 14 12 13 -15 20 16 17 -19 -20 -21 23 22 -24 24 -26 -27 -28 -29 -30 -31
leaf_value=-0.10569946840204066 0.10176069861800868 -0.040465774550221434 -0.073278303996929708 0.062015766072861959 0.095170436337462042 -0.070099697082316767 0.1034421475658911 0.1039409880962404 -0.06009940037707448 -0.06929794600800343 0.1070372385907133 -0.041310126129195462 0.011345839044915658 0.032644094358322794 -0.011373473832993461 -0.035206224686180079 0.045037472513757414 -0.0043805515006564936 0.0036558406476122785 -0.036547652798995744 -0.034931516616846049 -0.087829182315758925 -0.041044128233288978 0.0042068755159839514 -0.057239455792902322 -0.0087994903141218918 0.060298380600543391 -0.11703047853589661 -0.0099066326317856605 0.035759317814800233
leaf_weight=9326.8884732574224 3146.9682772196829 2595.2091678921133 957.96197984367609 374.11481541581452 131.36538210138679 532.67717248946428 92.631907923147082 62.374497942626476 93.520050957798958 681.5893187969923 60.853184413164854 923.29361662827432 1063.9062407538295 1195.9373761303723 4797.8574934005737 1343.4096786398441 595.39048089645803 1159.6426656916738 1476.8993181865662 555.03363011777401 661.20306885242462 489.97310541570187 1632.5639312621206 1720.5531124435365 221.92824470996857 1361.6628081947565 278.99246657639742 122.866146158427 773.62684138864279 483.77588280290365
leaf_count=42937 185083 6143 2763 13866 2266 1452 3083 293 215 1942 706 2230 4215 6071 11628 4388 3225 4327 5040 1423 1584 1100 3858 4985 497 7313 952 443 2095 1498
internal_value=-0.0280945 0.00141651 -0.087522 -0.0124 -0.000822735 -0.0402376 -0.00316845 -0.0281915 -0.0175353 -0.0319016 -0.0220603 -0.00447456 -0.00549482 0.0109511 -0.0172178 -0.0121241 -0.00767724 0.0123844 -0.0158561 -0.00507386 -0.0179891 -0.0237861 -0.0518441 -0.00407223 0.00511277 -0.0260463 0.0120332 -0.0420627 -0.0014124 0.0202305
internal_weight=38914.7 26002.3 12912.4 22855.3 10396.2 3585.53 10022 2627.56 2094.89 1517.59 12459.1 9890.67 9798.04 2814.88 9863.92 6983.16 6059.87 1755.03 4304.84 1618.94 9803.07 6920.39 2122.54 2882.68 2221.47 2827.94 1999.55 1466.28 836.001 577.296
internal_count=327621 274426 53195 89343 57890 10258 44024 7495 6043 4330 31453 41758 38675 11709 25310 26966 24736 7552 17184 5638 24604 16586 4958 8018 6434 12144 5937 4831 2388 1713
is_linear=0
shrinkage=0.1


Tree=26
num_leaves=31
num_cat=0
split_feature=0 1 1 3 4 0 3 0 5 4 1 2 3 2 1 4 1 1 0 5 2 8 7 4 0 4 1 5 5 2
split_gain=6128.76 3226.34 1123.52 220.099 192.596 146.53 137.481 133.172 112.619 111.546 106.757 130.55 100.165 96.7119 93.765 93.1284 90.1453 86.7293 162.078 110.377 103.772 86.755 77.9347 77.6626 77.2772 109.184 141.163 139.386 130.064 84.1155
threshold=3.0128205128205132 0.22651126581027045 0.7853267038639733 4.0915071770334936 0.45190658707358139 4.2738636363636369 2.8340978593272177 2.3431372549019613 5.7760923194611733 1.796205523454746 1.1657419088589662 0.89587973461402759 3.5380986937590717 0.89587973461402759 1.2922548684852064 1.3737494984139211 0.52572618272116656 0.88033831904807569 3.431677018633541 3.9607678160667752 3.3497501700808394 38.500000000000007 2103.5000000000005 1.3762584275271561 3.5071428571428576 1.4202968789029951 0.77459666924148363 4.6395599436855051 3.3842466058243152 5.5700605695508072
decision_type=2 10 10 2 2 2 2 2 2 2 10 2 2 2 10 2 10 10 2 2 2 2 2 2 2 2 10 2 2 2
left_child=2 -2 -1 6 -5 10 -3 -4 16 24 15 -12 -9 23 -11 17 -7 18 -6 -20 22 -22 -19 -14 -8 28 27 -27 -26 -29
right_child=1 3 7 4 5 8 9 12 -10 14 11 -13 13 -15 -16 -17 -18 20 19 -21 21 -23 -24 -25 25 26 -28 29 -30 -31
leaf_value=-0.1053573123355986 0.10159034634054741 -0.073196152990989513 -0.065763460655267711 0.091434615174661948 -0.06315923784075872 0.078607969187952417 -0.039012583661756327 -0.066300499640102747 0.091877986311018914 0.071479396468909079 -0.038891023470862464 0.0096998093607143353 0.053725399127084378 -0.0285814525170917 -0.019010833926731505 0.049267203345487377 0.0057363226090337135 -0.052570674186166302 -0.023276889695212043 0.036824122133964819 0.025369868917543215 -0.051884491233436303 0.15793844246198954 -0.023727931395412148 -0.061089172923156847 0.0074655295996389655 -0.013237221312813068 0.12300589778401523 -0.018755814536886656 -0.13983441801687027
leaf_weight=8400.2516859360039 2852.0265535088256 488.06386938877404 1185.6858854666352 218.39617911167443 395.40617428719997 180.09625478461385 1946.7626196295023 466.56353117525578 177.12699840962887 245.34184229373932 669.13210066407919 3183.8371888026595 311.66703102737665 1382.8599846214056 214.72857551276684 176.14124649949372 2956.7402287255973 1674.572221852839 545.87763089500368 694.14697385579348 399.25522463023663 228.58431465923786 17.773563966155052 221.43936149030924 895.06520531699061 464.34070924110711 2830.7800429463387 192.50717340968549 3836.7522341348231 12.997731804847716
leaf_count=42567 185083 1187 3652 3826 906 6998 4826 1344 2243 1098 1502 9418 1090 3929 531 623 17760 3902 2087 3457 1270 584 73 613 2676 3928 7011 2151 11254 32
internal_value=-0.0263556 0.00135547 -0.0853886 -0.0112689 -0.00157831 -0.00337618 -0.021299 -0.0383783 0.0143007 -0.0189183 -0.0107127 0.0012612 -0.0247499 -0.0146318 0.0292449 -0.0218788 0.00992013 -0.0250468 -0.00740999 0.0103667 -0.0374786 -0.00275696 -0.0503598 0.0215532 -0.0210951 -0.0168581 -0.00346884 0.0378125 -0.0267635 0.106382
internal_weight=37464.9 25496.5 11968.5 22644.4 11517.1 11298.7 11127.3 3568.22 3313.96 10639.3 7984.73 3852.97 2382.53 1915.97 460.07 4131.76 3136.84 3955.62 1635.43 1240.02 2320.19 627.84 1692.35 533.106 10179.2 8232.44 3500.63 669.846 4731.82 205.505
internal_count=327621 274426 53195 89343 54649 50823 34694 10628 27001 33507 23822 10920 6976 5632 1629 12902 24758 12279 6450 5544 5829 1854 3975 1703 31878 27052 13122 6111 13930 2183
is_linear=0
shrinkage=0.1


Tree=27
num_leaves=31
num_cat=0
split_feature=0 1 1 9 9 9 3 4 5 3 3 7 3 3 9 4 9 7 5 4 3 9 1 1 0 4 9 4 2 8
split_gain=5490.01 2889.95 1138.97 193.338 419.115 209.687 172.344 168.434 126.066 133.97 125.502 108.459 106.551 106.536 103.088 93.2223 92.7736 82.9958 82.8441 152.737 109.093 81.5956 70.175 70.1401 90.5289 71.3217 65.0932 64.0426 63.0312 62.552
threshold=3.0128205128205132 0.22651126581027045 0.7853267038639733 0.84654631083202525 1.0000000180025095e-35 0.47722567287784684 4.497422680412372 1.2882334506682909 4.1510089048756029 3.9686681937172779 3.412778904665315 1109.5000000000002 4.1988372093023267 3.8478535353535359 0.79772727272727284 1.8350868651171064 1.0000000180025095e-35 638.50000000000011 2.4414009612931857 0.58658007868906992 4.2664694280078903 0.053588516746411484 1.5269901964788748 1.461565858816767 3.7787193973634658 1.2229545405811257 0.74090608465608476 1.2666874147815235 3.6505739029280164 2.5000000000000004
decision_type=2 10 10 2 2 2 2 2 2 2 2 2 2 2 2 2 2 2 2 2 2 2 8 10 2 2 2 2 2 2
left_child=2 -2 -1 4 10 -6 7 13 9 -4 -3 -7 17 -5 16 18 -11 -9 19 -12 -20 22 -10 24 25 -22 -13 -21 -29 -8
right_child=1 3 8 6 5 11 29 12 21 14 15 26 -14 -15 -16 -17 -18 -19 20 27 23 -23 -24 -25 -26 -27 -28 28 -30 -31
leaf_value=-0.10472465721402463 0.10143672117768397 -0.042350060977206755 -0.049177901446471009 -0.070193470139447642 -0.082920184821715287 -0.043533714767856641 -0.28530039653409339 -0.015972101148872816 -0.055738798639119437 0.010545239851646064 0.11599536883921187 -0.021439242110425968 0.062541656134288207 -0.014347369270450923 0.044556263830097448 0.13355930322105797 -0.062911415695046893 0.019175841996663424 -0.0082669232530612289 -0.066453344495440034 -0.026756696624574861 -0.076279792152432441 0.013725408365013073 0.048768838040841186 0.020950707438925176 0.12194234509330158 0.02992998423374986 -0.027664628096790364 0.086413515157424223 0.036586809741546003
leaf_weight=7644.440771151334 2584.3297719648108 872.64520833548158 830.82708125561476 404.17183329723775 992.40917449630797 2277.6207846691832 6.0638904124498358 1139.5984521033242 379.03244380652905 429.80786731094122 66.787140727974474 831.7973448028788 360.42503025196493 2206.2559730056673 399.57070419192314 49.880220748484135 286.56885293871164 1636.7114650849253 5917.6372329881415 477.11396029405296 738.34379236400127 906.09160001203418 235.97348791360855 513.74951197952032 1721.6551360106096 33.729120992124081 350.67263836599886 436.76693723909557 54.474844891577959 1370.2460201671347
leaf_count=42567 185083 2464 2572 911 2368 6707 8 3868 1122 1297 1069 2676 2144 9705 1308 238 911 6660 19295 1457 1698 2714 704 1737 12094 112 1407 1341 201 11183
internal_value=-0.0246634 0.0012938 -0.0831615 -0.0102296 -0.0165533 -0.042399 0.00338372 -0.00422801 -0.0356286 -0.0187751 -0.00597894 -0.0307769 0.0113893 -0.022994 0.00385982 -0.00280824 -0.0188393 0.00474858 -0.00349116 -0.0302707 -0.000385253 -0.0571985 -0.0290859 0.015123 0.00819145 -0.0202606 -0.00620521 -0.0403586 -0.0150143 0.0351686
internal_weight=36155.4 25043.1 11112.3 22458.8 15335.3 4452.5 7123.47 5747.16 3467.87 1946.77 10882.8 3460.09 3136.73 2610.43 1115.95 10010.1 716.377 2776.31 9960.26 1035.14 8925.11 1521.1 615.006 3007.48 2493.73 772.073 1182.47 968.356 491.242 1376.31
internal_count=327621 274426 53195 89343 54864 13158 34479 23288 10628 6088 41706 10790 12672 10616 3516 39242 2208 10528 39004 4068 34936 4540 1826 15641 13904 1810 4083 2999 1542 11191
is_linear=0
shrinkage=0.1


Tree=28
num_leaves=31
num_cat=0
split_feature=0 1 1 0 1 0 2 3 2 2 5 3 4 2 2 4 8 1 4 0 1 5 1 3 4 3 8 8 8 5
split_gain=4912.94 2591.3 1145.23 176.876 128.681 121.47 100.814 100.656 97.2471 98.9078 116.024 90.5365 117.362 86.1517 84.2827 93.8061 83.1947 81.3178 84.9848 80.2524 112.876 88.7188 79.9515 78.5696 87.4129 78.5269 78.1271 72.4361 67.5682 66.5001
threshold=3.0128205128205132 0.22651126581027045 0.7853267038639733 4.1830143540669864 0.54785959092817871 2.0192307692307696 2.602003343538398 3.2873015873015876 0.89587973461402759 2.9700856263602158 4.6395599436855051 3.5380986937590717 0.58658007868906992 0.89587973461402759 0.89587973461402759 0.81502656197026579 90.500000000000014 1.2251313481960415 1.301423096714742 3.453079178885631 0.95513386588183879 3.1132683346437333 1.4416474375723385 4.3119240106535939 1.4202968789029951 4.0242449664429545 31.500000000000004 22.500000000000004 21.500000000000004 3.1567740231385479
decision_type=2 10 10 2 10 2 2 2 2 2 2 2 2 2 2 2 2 10 2 2 10 2 10 2 2 2 2 2 2 2
left_child=2 -2 -1 7 6 -4 -5 -3 -6 10 -10 -7 -13 -14 -9 22 19 18 28 20 21 -17 -16 24 -11 -19 -21 -25 -12 -8
right_child=1 3 5 4 8 11 29 14 9 23 17 12 13 -15 15 16 -18 25 -20 26 -22 -23 -24 27 -26 -27 -28 -29 -30 -31
